9.800588853658613597e-02
-1.720353939274387248e-02
1.718775427857429094e-01
9.539675978177482307e-02
1.634356637372546411e-02
-1.708995245658583295e-01
5.084560646507880338e-02
-1.898265784982649737e-02
1.493329557751767872e-02
4.417097238261304126e-02
-1.458270547615415080e-01
-9.879059468510406616e-02
6.045028912088474399e-02
-3.741784007029850395e-02
1.385699495263692793e-01
8.253515719227709491e-02
1.465107818197998735e-01
-2.097468481017870368e-01
3.236003567407434445e-01
1.262926829090872949e-01
-2.712318267919412995e-01
-1.005476099322579198e-01
1.947434162085133480e-01
1.742736326145605530e-01
5.607665187585476191e-02
3.012177479999443401e-03
-1.599315895512877506e-01
-2.717418097219847506e-01
-2.533733839538619415e-01
-8.764568599213792832e-02
1.639187913373006400e-01
1.055187224010255449e-02
-2.311141787231872288e-02
1.555127710667032481e-01
-3.863698475341816735e-03
-1.384710146688158672e-01
-9.129579007724360207e-02
-6.930379569185136923e-02
-7.464205063078691027e-02
-1.357397651643371672e-01
1.722714945578691648e-01
2.665901399237029512e-01
1.216756236030689248e-01
-1.417211798936933720e-01
1.580710299953729803e-01
-1.099613292454347940e-01
2.244839418920890894e-01
9.647294716770812850e-02
-1.337055597709085608e-01
1.192230079873923543e-01
3.770979628983993359e-02
2.706694351403524101e-01
1.371871000296402410e-01
8.215860757249879298e-02
2.203160419386842803e-02
-2.796792681871014541e-02
-3.680354819378926085e-02
-1.188714811905080826e-01
-6.950986332263060785e-02
-6.924425268189995930e-02
-7.656255441835847254e-03
1.637622931707679586e-01
4.992860060707048075e-02
-3.817441661402004582e-02
