-9.095238211803444162e-02
-1.122745681477497204e-01
-6.465498408323454294e-02
4.257973001301918609e-02
-5.553914119767429380e-02
-1.048833731522868379e-01
1.212494602929857154e-02
8.942472501281430175e-02
-9.766296536496511804e-02
-1.257838086733722160e-01
-1.106867300224765281e-02
-1.624725672003657917e-01
-1.026351276040971816e-01
-5.868848616242348243e-02
1.212917755339967471e-02
4.196211938452070606e-02
1.826160922877150539e-01
-1.205401558695582687e-01
7.827118416682181390e-02
-6.858311356958609988e-03
-1.870166670016745469e-01
1.153268390599375692e-01
1.022593880244999781e-01
-2.828023629937062577e-02
8.980068711754395083e-02
1.025082958756153573e-01
3.429213909288428980e-02
-5.117015792906705503e-03
1.489230143392493988e-01
2.083085165839859421e-01
-4.603628167921350323e-02
-4.656140041375556211e-03
1.295816283478479769e-01
7.691705937671523829e-02
-9.895326413330564341e-02
-7.960200717092569267e-02
-2.999982510606707953e-02
-1.169293213166201356e-01
-1.393058687590756350e-01
3.704664656464199401e-01
-2.608050121884989414e-01
1.418477097299499501e-01
-2.909246222768609447e-01
-8.425860626255295138e-02
1.673114598550052845e-01
-3.731611117261452587e-02
1.456832111154771903e-01
1.843036605327095789e-01
-1.757999448232506201e-01
-1.421729487288611038e-01
7.127321136614142572e-02
-1.611224868114858877e-01
-3.081071250302357400e-01
9.589103819182805133e-02
-2.254042651956932042e-01
-7.112578529222886303e-02
-8.585305638193169164e-02
-2.474389287549733779e-02
3.209801569892517525e-01
3.228338344342506216e-01
-1.168222041089725660e-01
8.004260852816383331e-02
-1.228041121431249355e-01
2.566919998981615977e-02
