1.910067392939467645e-01
3.469986102583172416e-01
1.225888494822949593e+00
4.264369306231690498e-02
1.292502621196844448e+00
7.211437743437505432e-01
-6.723288607349899026e-02
2.362401307268418293e-01
-1.692559975424817384e-02
7.857364967739391970e-01
-9.940247131457331520e-01
7.834041585894149784e-02
1.058907445319085650e+00
-2.615648243030587183e-01
8.458453410916425344e-03
-1.815929564938013885e-01
-1.271275522417527615e-01
-6.827092889850563950e-02
1.443316804497337714e-02
-7.163394210656530703e-01
5.441215444663602963e-01
-1.122233991453579716e+00
8.494060770923811399e-01
-1.181404331304134914e+00
2.946663980623724921e-01
-2.957733648937454496e-01
5.532562025270982842e-01
-2.271714460689070458e-01
2.180675708755085984e-01
-4.270010922001030162e-02
-5.133381718629718461e-03
-2.255274865286508168e-01
-1.473928275194039406e-01
-7.143891264243166228e-01
-1.127181542540997561e-01
-1.729681728809834729e+00
-1.792758340782155679e-01
-1.798216024693448101e-01
3.857976975910182293e-01
-7.097888509253079681e-01
3.481317892094844962e-02
1.191057681556504516e-01
1.297940670231261320e-02
1.065197483618339075e-01
-3.626527187224338755e-01
-5.628471258506932973e-01
2.600685473768029055e-01
-3.639004867034590363e-01
1.161423718631071411e+00
6.309108345121822170e-01
-1.330412448709119566e-01
-1.782676618375282074e-01
-4.986965676558341443e-01
-1.225166429819301683e+00
3.599454350228965538e-01
-3.982817810399865155e-01
4.495941537943746735e-01
-1.676989332144592504e-01
5.583522122435237434e-02
2.374225362433155240e-01
3.781456403134848543e-01
5.990342967952809738e-01
-1.055493864577027541e+00
-5.085470659350008193e-02
