1.156697433623143506e-01 1.118972609418732861e-01 4.874727397286767738e-01 8.751983085084588665e-02 2.193536429496889539e-01 2.990126056225332341e-01 -6.369557753277783896e-02 -1.772061415292567610e-01 -6.708911899604003137e-02 4.375567133707791712e-01 -3.163476516564367458e-01 2.450674268340093109e-01 4.125814891431702769e-01 -1.716752735520729045e-01 -1.311040544612159520e-01 -1.224489796503819145e-01 -8.383070137066672700e-02 -2.725457510038369335e-01 -1.549395614181962588e-01 -1.827059253203865419e-01 2.094687832492597435e-01 -2.781498349777096757e-01 5.220856034669798529e-01 -3.262800123644856165e-01 7.694615769240811809e-02 6.113927793470070454e-02 1.034245138545356879e-01 -2.132200130488039469e-01 1.917469964277649375e-01 -4.408730598263713857e-02 -1.597299210506710754e-01 -2.039854457522335407e-01 -1.944715015170007666e-01 -2.323219192731691696e-01 -2.083489124065079356e-01 -6.804214702667904513e-01 1.747532293302526407e-01 -7.071768931616637111e-02 2.781696285501932264e-01 -4.117724740276565987e-01 -5.157540189488084292e-02 1.516815795581756277e-01 1.692593267405019530e-01 -8.024481687712639588e-02 -2.233310837040007601e-01 -3.021821924964891437e-01 1.120260594990758057e-01 1.417709556069586020e-02 2.658156344012000960e-01 3.790995879094474219e-01 1.713035194575121892e-02 -2.920454513505859606e-01 -3.455778445991334880e-01 -4.311332442583314939e-01 1.470396894369005725e-01 4.535865601314438382e-03 3.716382403564438830e-01 1.361385344033022408e-02 -2.864586188492534991e-01 4.275445679594304382e-02 1.603866341263459894e-01 9.669815777228368825e-02 -5.269251883153168725e-01 1.477543138980271231e-01
9.043223855268202327e-02 -1.015730562640497631e-01 -8.575140546397987118e-02 -1.205567991195037082e-02 1.830204268646592469e-01 4.618892907995116731e-02 -1.179416367264740501e-01 -1.755986222350961745e-01 6.651393024335992832e-02 -8.445339799039744411e-02 1.476013419165229587e-02 1.678930635591049103e-01 8.990274347377787134e-02 2.991208882517405396e-02 -1.860663885683510321e-01 -1.899082232170288820e-01 -2.333067649116664644e-01 2.006051174568363685e-03 -8.653738997770120400e-02 1.303855633946392478e-01 3.278265860077659438e-02 4.649699495693446205e-02 -7.784034331040019794e-02 1.961319094435836075e-01 1.094451288211820972e-01 1.403755784602487289e-01 4.390469680485777071e-02 1.956299599907109499e-01 4.089478073108213096e-02 1.427730926119192764e-02 -1.592292264144303249e-01 -1.014138809625358545e-01 -6.831134213775587327e-02 -1.352284752252368438e-01 1.333792970228065700e-01 1.308088346690900461e-01 1.566723515767917130e-01 -7.853059300542421586e-03 -1.869397151227659634e-02 -4.820858783786097224e-02 1.234048766526459479e-01 -2.900680980073080950e-02 9.497415700225661506e-02 -8.754139669616983754e-02 -7.964655386342806009e-02 -6.017247469584679348e-02 7.344624775729295674e-02 -1.895149912677887571e-01 1.457370338212389538e-01 -1.809928787260216276e-01 2.363163949456615343e-01 1.758058550204338322e-01 7.278528396037960146e-02 2.798494412450669433e-01 -1.358087699531032033e-01 2.998323944665314267e-01 1.857238700874226101e-01 1.414110655016556362e-01 -2.906481869413655300e-02 -2.408076061869161844e-01 3.865786104306589976e-02 -2.626585056726985501e-01 -1.137260130868018859e-01 1.465005236583278581e-01
-2.869844579238597371e-01 -1.612309186027371388e-01 -2.412613170326288470e-01 1.027282291009728316e-01 -2.353809181844371615e-02 -1.817582343997098671e-01 1.717306791996275617e-01 1.244128054396322069e-02 8.577632036153332029e-02 -1.384711332260623873e-01 1.085378845506432682e-01 3.502882767057034774e-02 -1.032524846842964722e-01 -5.831978973359939339e-02 -1.948379162327551484e-02 5.735378972067035896e-02 6.465096737982821418e-02 -1.084249880887230566e-01 -1.602272078483446549e-01 4.493894569717658133e-02 -3.537686158063995442e-03 -9.452697061439530035e-02 1.515651006733773898e-01 4.315616852889966881e-01 -1.624230159560156039e-01 -2.969524547743328247e-02 -2.541160070154428741e-02 -4.024668010162260612e-01 8.646266859345919098e-02 -3.182765788880322771e-02 -2.064861166760209935e-02 1.059698253958709507e-01 2.729186547699551935e-01 1.531955177861659967e-01 7.152119330432324396e-02 3.242248935818493605e-01 1.013333369296193914e-01 1.770112068492475377e-01 -1.284514460575905377e-03 5.250873812777258065e-01 -1.528278486666756475e-01 1.341903209063548263e-01 -8.752496177771297570e-02 -9.099124001661837435e-02 1.215949355261310566e-01 -1.710666085458877606e-01 -1.881654361724774058e-02 2.964916017703245199e-02 -2.800436269489071650e-01 4.009058442416248841e-02 -7.145419699379293443e-02 -6.445982523377255524e-02 5.018302129289284319e-02 -1.040501789792237786e-03 -2.591043522093454121e-01 -2.440484645158921481e-02 -2.158948041241107174e-02 -1.943440897288546132e-01 -2.934339608918293818e-01 -1.152113973922064619e-02 -3.303655732168014891e-02 2.218729407650583962e-01 3.316673495960016371e-01 -4.489804457099864227e-02
-1.758631094837717346e-01 6.196620997410859540e-03 -6.989337437096045103e-02 -1.115629239625766794e-01 3.555940588242014616e-02 -1.038388496728247234e-02 -3.346214990414647095e-01 2.465539865053922031e-01 1.151526226100482719e-01 5.878538166527382154e-03 -1.374600642070365265e-04 3.621473855336276859e-01 2.180933392058431730e-01 -2.142074736210478614e-01 -2.403193323043457952e-02 1.231839979109019684e-01 -5.392045503497755465e-01 -2.603262492718130122e-02 9.637262178522582046e-02 -2.731955966992760665e-01 2.338353552218049979e-03 -1.075797248729610522e-01 6.802124147368660001e-02 -4.502015992180943837e-02 7.282756839759552299e-03 -2.635440019785018073e-01 -1.226237358517595633e-02 7.453374386380189065e-02 -1.863633679209712735e-01 -1.428444094008775311e-01 -1.365822727272468853e-02 -8.238435873592128700e-02 3.939414249428609821e-02 -4.904993746136876442e-02 2.426380150743815689e-01 -2.133247185804381940e-01 -2.995350275712241883e-01 -7.093244476355672901e-02 -1.787158085127091012e-01 3.078083033337038477e-01 2.030274227419609778e-01 3.605931689541325841e-02 3.270676918461054572e-02 1.116786584227473372e-01 5.950419050412929928e-02 -9.306097386733217652e-03 6.851349237113840696e-02 -1.845874614097030575e-01 -2.193112987728778884e-01 8.390714909039731495e-02 5.726513030013846706e-02 -2.394866995836783807e-01 -9.606198293971299207e-02 1.921372133881820432e-01 -1.645834125890187349e-01 -2.549794065056921188e-01 2.322580668588603015e-01 2.627795963044297911e-02 8.885009040399349800e-02 -6.303317010540773757e-02 3.361075949488481762e-02 -6.181663902113777864e-02 -3.678103954152691507e-02 1.227130161047826698e-02
2.520296622492102651e-02 -3.372331390899387799e-02 -5.518898337574748014e-01 3.123393076478630515e-01 -3.943971935165462295e-01 -8.059374409234658365e-02 2.548842508158228881e-01 -1.933517033429416887e-01 -1.645047950524789748e-01 -3.355188022579801144e-02 3.132012361357479069e-01 -2.242251698126593029e-01 -4.806130539668954094e-01 -8.010655060515223247e-02 -2.395492936626742592e-02 2.318316258143195974e-01 1.454066013747124756e-04 -1.080841219323524921e-01 -2.825023699922619936e-04 -9.889120083404961958e-02 -2.373519571568440123e-02 3.554757804186443604e-01 -1.328738467869435003e-01 1.658319394517616951e-01 5.700059184411912505e-02 1.100800927942139629e-01 -8.310358323756440388e-03 4.779343629570472277e-03 -3.127582097329213995e-01 1.431502383769474307e-01 9.660443554861987414e-02 -1.055977369856277021e-01 1.654518413691082740e-02 2.681195624963122470e-01 2.661576427458189897e-01 4.612443715881599515e-01 1.430408372186389165e-01 5.406719874325250155e-03 7.181672864726239280e-02 -3.720360094851000998e-02 1.201921679433029660e-01 4.354973193546924498e-02 2.364079561535492591e-01 -1.953899790289645721e-01 -1.586079244695537405e-01 -6.608668228891123597e-02 1.784942264392615774e-01 1.207514782780804742e-02 -3.471659644030296588e-01 2.289528434219876077e-02 1.602863182668897227e-02 -5.564417115221880622e-02 2.171540240184482995e-01 1.106423839522516495e-01 -3.127725907339302669e-01 -2.132293289853548143e-02 -1.809614699410834748e-01 2.914794148645511451e-01 -3.555114789091072536e-02 1.224647225202308704e-01 4.280743695827201462e-03 -1.099625989714729662e-01 1.681749779695535796e-01 1.447750740732680133e-02
2.250314933448719495e-02 5.653788010960427574e-02 9.915010833235510246e-02 -1.462733812399692190e-01 3.661494798788758609e-02 2.527365830011390480e-01 1.088809838837311583e-01 -3.796993619941560483e-02 -7.812598490243898020e-02 3.089208420092950935e-02 -2.091831034495940100e-01 2.608332813529152805e-01 -8.068003577179118369e-02 -1.094568356125260461e-01 1.912953039785488529e-01 -2.473724815653009224e-01 -7.988259950179728286e-02 -7.750433051763602754e-02 -3.413375591273760945e-02 -1.182250655633535902e-01 2.734489627630404263e-01 -1.718278235722799918e-01 2.409826442406086122e-01 -2.075905607445294176e-01 -1.438562814104276943e-01 -9.584818329226837963e-02 9.197479707731082144e-02 6.369687631268085293e-02 3.585762676692364481e-01 -4.525369597511884334e-02 -4.688288173278730431e-02 -3.986648833160211236e-02 -1.479795282542280092e-02 -1.991173903173858173e-01 1.299362522186326696e-01 -1.942131511252458698e-01 9.372669407115018919e-03 1.342235353678236098e-01 -5.254553391858705208e-02 -2.129803471411727267e-02 -3.141516753592568101e-01 -7.951745675940975755e-02 1.098378488014764565e-01 -1.059240265668854597e-01 -1.153032257799825877e-01 -7.484090912679944307e-02 3.064596865336264297e-01 -1.722766848163859443e-01 -7.125644771534024591e-02 3.934471910535988076e-02 -3.799276512859971894e-02 1.117141282050943159e-02 1.283754669669309040e-02 -1.064964660165640259e-01 -1.253309854257196876e-01 -3.012242138612209255e-02 3.345978122364872132e-01 -3.195332097881239952e-02 -3.062767647955776940e-01 -9.935550694103387204e-02 1.625419459458893601e-01 3.391377269311610099e-01 -1.574321409380242953e-01 -2.865825295232413139e-01
2.354948792417316250e-01 1.070815697628698243e-01 9.794907235026193218e-03 -6.784619733619273729e-02 -1.827061687083040842e-01 8.325221649471194196e-02 3.057795493781894150e-03 2.704906553603663166e-01 -2.653904424317044541e-01 1.077920056902417489e-01 -3.627143303146698056e-02 -1.778690854726379389e-01 4.065572261952729582e-02 1.022865542889540708e-01 1.751130171037462158e-01 1.633512600073314391e-01 7.048415349136238905e-02 -2.714705986438033514e-01 -1.157630182719052714e-01 1.350182811167780286e-02 -1.233696601949654942e-01 1.910672526223204659e-01 -1.911631586019958973e-01 1.571069962948016541e-01 -9.795538795862553105e-02 -1.283993203255916482e-01 -1.520812763148386426e-01 2.093157050925584066e-03 -2.234081320473592369e-01 -7.276229978791974584e-02 -9.109358266496996037e-02 1.258079770559353550e-01 -2.949304834417010301e-01 4.130024564767009188e-01 1.086586465906414084e-01 1.837810413850875513e-01 2.013744416013788785e-01 -1.715050337294107829e-01 4.749494472461150696e-02 7.416185523952803504e-02 -3.353632305217816439e-02 3.895491543098308224e-02 -2.118806553517317559e-01 1.048019954555078764e-01 1.134198178098854287e-01 2.681924648453818949e-01 -5.674538163780102132e-03 -5.261070416619385154e-02 -7.570234118411829638e-02 -3.084543430294856559e-01 -2.324571508143873089e-01 -2.000732681049138123e-02 1.090308765118636579e-02 1.476827369877284635e-01 7.422838022879416076e-02 3.056627845134126109e-01 -1.550501705491805562e-02 1.870694181276706114e-01 5.131805611024491814e-02 8.452550907632239152e-02 9.040506525194566545e-02 3.937799152155430776e-02 -4.217428914091470721e-02 -1.718742278261367329e-01
5.173609165253986036e-02 -2.499092843572183961e-02 1.144887492161758696e-01 1.024415069725603950e-01 1.030541790429471832e-01 2.099559081845230879e-01 -1.241727274463124558e-02 -2.279452649252508012e-01 -1.210402116477250212e-01 1.969013582130567375e-01 1.442011230799719601e-01 2.796987220725040066e-02 1.620148753955308052e-01 -1.001505439940554021e-01 -1.323069782627489532e-01 -1.636931971003524264e-02 -7.322746589714196341e-02 -2.491369834911238146e-01 -2.169694415316809899e-01 7.643675415455519762e-02 -7.767385179306698917e-02 -3.029635952728652049e-01 2.076775380826978712e-01 -2.426311492827211147e-01 -8.807049906607652967e-02 8.071978665192154623e-02 1.676877941165957064e-01 -1.909516574264105704e-01 2.186558967486530447e-01 -1.136526323318822057e-01 3.262146045254118998e-02 -2.769989423574159906e-02 -8.291154953569744579e-02 -5.061090762766822654e-02 -1.040910750330896056e-01 1.534482123220643618e-02 1.883073982274375280e-01 -1.905995976493033983e-01 4.795939528720525868e-01 -5.921366527371125371e-02 1.822242235925306264e-01 -3.831652899687909564e-02 -5.243055064986523045e-02 -7.569880975237525123e-02 -1.610072082986971909e-01 2.541494181845956046e-02 -3.590441722570647531e-01 -8.765608833676813427e-02 2.398494802096491074e-01 1.062747989025553397e-01 -2.065995086594707153e-01 -3.017704668070472773e-01 3.248387317034331229e-02 3.272981271317101232e-02 -4.608018702298678076e-02 3.665097576921400591e-01 -1.110763627556087957e-01 1.096116775047331487e-01 1.883444704675557579e-01 3.751823340020178366e-01 1.020857452806216703e-01 -8.330170960909567823e-02 -2.140672978620339340e-01 -2.509807671897893444e-01
-1.617148017057891754e-02 3.236149207016756901e-01 -3.150825711740579127e-02 6.460008521458293629e-02 1.851875737810310951e-01 -2.719594002601637486e-02 -1.878418567737214495e-01 -1.468965212843471868e-01 1.854840213766234813e-01 -4.123807483776902733e-02 -1.163671423508299829e-01 1.312351805953410888e-01 6.527046960138243974e-03 1.120135757386508425e-02 1.814252080287777902e-01 -1.400297791993364771e-03 2.094353852990042675e-02 -1.213243114969578401e-01 -5.383780745935246720e-02 3.042307644115901238e-02 -3.830435207967358008e-02 1.821444914471586629e-01 1.293494958875858192e-01 2.996359476719085910e-02 -1.269993136353606868e-02 -1.396629167083469625e-01 -1.738969029625574703e-01 -9.826736374180933264e-02 -8.477684720768641213e-02 -1.927026365371627137e-01 -1.196672886330611002e-01 -3.628368412772943752e-01 2.707697297392983593e-01 -1.586015872785952741e-01 -8.687885160669500673e-02 2.104965551116279865e-01 -6.382641876506846279e-02 -1.463788994493247508e-01 -2.236405072005359651e-01 -1.003985182283635563e-01 1.216872645694287366e-02 1.981412376899977790e-01 -1.409655625337985774e-01 1.526295911865585830e-01 3.721346936972663721e-02 -1.684401170818826676e-01 1.405930045142697038e-01 1.259388628494744755e-01 1.965712244588177227e-01 -2.296428025938955508e-01 -5.007637499640484047e-02 -7.723043024525694245e-02 5.979544642937185961e-02 -2.837245915869845425e-01 1.319682668465965991e-01 -2.978273844922529889e-01 -1.247353410576074323e-01 -4.741464583771990565e-02 -4.374710997200136758e-02 -2.270298134221316877e-01 9.634067542756137581e-02 3.119405896920935395e-01 9.644513765271985062e-02 1.215032920787736774e-02
-7.148533857143932191e-02 -3.823667941959563166e-02 6.056537975491241982e-02 3.641190869125009166e-02 -2.899195858088129407e-01 1.423921202244179951e-01 -1.915264583732590245e-02 -1.339225454590322606e-01 -3.495303921149388593e-01 1.480646587078096044e-01 1.059485882179614230e-01 -1.496311076998873592e-02 -2.600466467598167575e-01 -4.386121034745517344e-02 -3.153369064986952935e-02 1.450071668008683264e-02 3.593364861890936401e-01 1.008933830868615766e-01 1.729809938093836152e-01 -6.560235293123379066e-03 -3.443879457325377952e-02 1.424004925648601483e-01 2.854628773131228092e-01 1.745189917950376937e-02 2.450115012433895512e-01 2.059535664791631859e-01 -2.045004974007519905e-01 -2.215580706372026754e-01 7.908609355828725984e-02 -1.563188171892002376e-01 -2.587916449235020400e-01 8.571186502724777168e-02 1.143120032772403094e-01 5.657667417420940426e-02 -1.078411428768813879e-01 -4.497817672134168075e-03 4.553688520193681644e-01 -1.065076356881693859e-01 -1.388261570735931094e-01 1.262985423437509580e-01 -4.341751110980986428e-01 -5.308160441150014397e-02 -8.308283813713093768e-02 -2.178150256947172236e-01 -2.108670361531756188e-01 -1.419169671298603219e-01 -1.330477719586656282e-01 -1.839702131190633361e-01 2.333577975555328476e-01 -1.664349476297614094e-01 -4.190698110423256989e-02 -9.711832369213788119e-02 1.028262370867029374e-01 -1.022721464590969770e-01 -2.424911911114224217e-01 1.285098778584821688e-01 -1.374380373252705456e-01 6.409292423823878537e-02 1.158587364060375798e-03 -4.647755914203456629e-02 5.230115250863259790e-02 1.927353344736918994e-01 -1.614304495500810122e-01 2.159034768095803303e-01
1.126845535034506351e-01 -2.631010716501017144e-02 -1.553531287444846476e-01 9.605185604041562020e-02 -4.148522221213866712e-01 1.869129648646320474e-01 9.781082340072440665e-03 1.845966420081841530e-01 2.435263187279427255e-01 -3.800350254154111207e-01 5.427509773358196732e-02 3.231825364426267611e-02 -4.575387984753629955e-01 -1.376140016494356577e-01 -5.892174987015651871e-02 9.858710709063633892e-02 5.051312661675955856e-02 1.505256468038502354e-02 -6.372715255940934742e-02 3.501061077022950552e-01 -2.698144983612995595e-01 3.140044991067807434e-01 -1.479607254195702826e-01 4.755863111094625340e-01 -8.527504802380139748e-02 2.751905793295799096e-01 -2.070878617787285103e-01 -7.899536246456283217e-02 -1.818534095557404473e-01 -1.228615107224684255e-02 -1.522435048701522853e-01 1.419866714637615657e-01 -3.743985722021853785e-02 1.240219034750155019e-01 3.303263191850982355e-02 3.978882459632278046e-01 1.632738812826937669e-01 -3.094659620258746191e-01 -1.828072768440475449e-01 1.379637456163257669e-01 1.117986045950729486e-02 7.532982835065223093e-02 -1.456418856194177658e-01 5.581632043914330071e-03 2.912796984008684253e-01 -1.412341283591991015e-01 -5.152821577132414566e-02 1.239307107395249685e-01 -4.182268671523132197e-01 -6.307676737049901228e-02 -7.851807141294189774e-02 -1.784973224051866203e-01 -5.629086260689372678e-02 4.380083975513412997e-01 3.063060221060801003e-01 -7.340516044728331857e-02 2.781193748007167524e-02 -5.964033103545225006e-02 -1.389853028268280277e-01 -1.290674184890517051e-01 1.633796929035279955e-01 -5.069223855931952356e-03 1.285641659679593041e-01 2.476340080141778699e-01
-1.629061082058937682e-01 2.015247155413480706e-01 1.616082884156624377e-01 1.116487411912028410e-01 3.973738757922363751e-01 -1.974895050877421582e-03 -2.425936851076429535e-02 6.674020676494747673e-02 -6.463859456859932795e-02 4.274643843921613340e-01 -4.214234228351442235e-01 -2.880304580925145963e-01 3.411048267675138579e-01 1.819719353697142605e-01 9.614568882444783637e-02 -1.670613696778607549e-01 -6.086469056524494714e-02 1.757982227792641017e-01 2.406399637958229198e-01 -2.892263019312422689e-01 2.844345057507763341e-01 -1.163160335145164426e-01 1.848060657330262146e-01 -4.327555444590093225e-01 -1.329149991588019497e-01 -1.149759451916644581e-01 -6.008234086246270339e-02 5.888780497691272625e-02 -6.967324111723130486e-02 -2.734951313333737755e-01 7.377031560578709013e-02 -1.831109132843369569e-01 6.623501508444895602e-02 6.793873337479086616e-02 1.225126501697959003e-01 -3.811376762574760213e-01 -2.520034767297955544e-02 -2.085956551437831985e-01 2.360582289817572399e-01 -5.983648179090875208e-02 -2.099610692401462364e-01 1.248891016266611975e-01 -2.707040958792728547e-01 8.701270543832749504e-02 -1.084298929674099438e-01 -5.555450375890420150e-02 1.662917224921755255e-01 -3.624236299965365449e-01 3.318141627006578331e-01 4.228857230691480673e-01 -9.904323721137045511e-02 -3.841404761876786311e-02 -2.550108430773823098e-02 -4.604675072091263810e-01 2.568886163722252092e-01 -3.517517283292283525e-01 2.748000844994891514e-02 -9.821398618554703919e-02 7.134404300454104397e-02 -1.319600631068654217e-01 6.167144150386743044e-04 4.016795052297139623e-02 -1.232947429931263994e-01 -5.726619826084153320e-02
2.177869193079137178e-01 -2.537565905398510568e-01 1.460685324652359340e-01 -2.889138733255888214e-01 1.911203685121316831e-02 -2.809786156030911197e-01 3.326361400338396224e-01 -3.890151514985729780e-02 3.040762957679598449e-02 -1.594030526877230070e-01 -1.576939776141579597e-01 -1.458819753235197081e-01 -1.049817023641490127e-01 3.054157513131316448e-01 4.558125520789214902e-02 5.473954642413793314e-02 9.424410618435181963e-02 -1.694203224388988460e-01 -4.966114468122322795e-02 4.407655588243993006e-02 -1.924081202858398398e-01 -1.759077720186720817e-01 -1.609782309590812033e-01 2.237558631894241146e-01 -2.086028251543119716e-01 -2.128276090433466605e-01 -4.374524976996183034e-02 -2.504034816559660426e-01 9.000010576419690753e-03 1.430369790565583221e-01 -1.985729160983530639e-01 -5.488578058665834897e-02 6.824034587520085016e-02 1.608139157446057399e-01 -4.549136009309346501e-02 1.476421171403871635e-01 1.796912284731845555e-01 7.194009571631717129e-03 3.527293045143298916e-02 3.937179187081954468e-02 2.135694244957977439e-01 -5.664675576586673811e-02 -4.489781995566041913e-03 -3.916110108208264440e-01 -3.553847155383348111e-02 5.089986184480872061e-02 6.183595326082760857e-02 1.825952645762572990e-01 4.993221663157661194e-02 -1.778627892764577945e-01 5.572394164934874050e-02 -5.851895906121403618e-02 7.987082055186738028e-02 6.679945256216514304e-02 2.845402881410822316e-01 1.409909345626342847e-01 -1.704363573305117951e-01 -3.146524387897702696e-02 -3.567389422824583656e-02 -7.113414222811548226e-02 -1.695032281496005877e-01 9.475136203266060209e-02 -8.026700709027230485e-02 -4.078464478286208950e-01
-6.373135848439262507e-02 -7.949131826579039495e-02 2.840631838511421536e-01 -5.023122149400082587e-02 2.540464082472569940e-01 1.769162099832737867e-01 -1.161546542360678350e-02 -1.590913318920061104e-01 2.618041561304305653e-01 -1.216169529698492985e-02 -9.329078546571535624e-02 -1.290630062478849427e-01 6.555240218422002385e-02 -2.549914273338981241e-01 7.790338107371064247e-02 3.067270749446488268e-02 -2.482432718427748097e-01 -5.082755381270167433e-02 3.083967329653510836e-01 3.790674746741466011e-02 6.187586121975111042e-02 -1.992239520260086494e-01 1.289631705244593252e-01 -2.689548285764414848e-01 2.860506644999832315e-01 -1.899688492672597928e-01 8.301643006128027469e-02 -3.720668174681460161e-01 -2.153858082368987903e-01 1.363024310468383959e-01 -1.186779102949297726e-01 1.575963568088518674e-01 -6.384812894892950667e-03 -2.096300099813756257e-01 -2.230146731569229712e-01 -2.989144221200821239e-01 -3.113005888360486639e-01 -1.246948270155695815e-01 6.752079960672582870e-02 -2.720477590386063405e-01 -5.667494711416740799e-02 4.555388833014489131e-02 1.763744134861084945e-01 1.164446501504537851e-01 -1.529894929614671224e-03 1.612094509006881116e-02 -2.587247612474992686e-01 4.653926153441850788e-02 4.068348144089987267e-02 4.336099221879601007e-02 -6.871498069159864830e-02 -3.267676298435445714e-01 -9.206681137761482669e-02 6.072962889605065806e-02 5.435897309295056185e-02 -1.476019521116060940e-01 2.131611971782193526e-01 4.611917144676379310e-02 -1.156773503227824101e-01 -8.247827248597831840e-02 -2.773084848754310203e-02 8.783836050274840268e-02 -2.728788941894724762e-01 -1.944777610098551435e-01
-5.092506712887540782e-02 -4.627453004654661500e-02 -2.426229590357896759e-01 -1.144727750954566969e-01 -2.295827232994069600e-01 1.481161466987266917e-01 1.800683307703144220e-01 -5.134128853530725567e-02 2.528338625480442206e-02 -4.779483070052420630e-03 -1.588431630462545097e-01 -3.722882437191274985e-01 -6.919029717997861317e-02 1.353278289132328061e-01 -3.298611448554519265e-01 -7.209919910501179363e-02 6.701190297266053884e-03 1.407003939738829257e-01 4.025255569569672481e-02 -1.374817374740428255e-01 -1.686144118499110500e-01 2.618739033390460325e-01 -2.053329267091487387e-02 1.309806042291333794e-01 -6.839613099122215933e-02 -3.059529035001974928e-01 5.766376778239330758e-03 -1.004181732610287814e-01 1.380314070951862149e-01 -1.885804265240189834e-02 1.029791017658291674e-01 -2.079574002331153193e-01 2.130656343762357685e-01 7.440184861461153487e-02 2.989617078961985530e-02 2.139948455330508426e-01 -1.664297803352845773e-01 7.351910075945576606e-02 -1.592618741297046614e-01 1.533470622492312183e-02 -1.617967258134537286e-03 -1.502854950699993863e-01 -1.599664377193436571e-01 1.065279960390428937e-01 -1.134642311660116754e-01 1.130887660616355234e-01 -2.140353367001554263e-01 6.625860298737161480e-02 -2.171608423426514833e-01 -2.432546456407095326e-01 8.816947361993190957e-02 1.423503584410487632e-01 -9.240791147366664293e-02 6.384209615291147610e-02 1.200987826776692136e-01 1.429872737572374930e-01 -4.580848798737271466e-01 3.295861866141034519e-02 1.648380814339705331e-03 -3.960016726249216412e-01 -2.249067102982052480e-01 1.283111998123925013e-01 1.702306694482352556e-01 -1.803695382803253283e-02
-3.150387618792074851e-01 2.200473726333750379e-01 -9.949743318141589243e-02 6.954302057492538214e-02 -1.176570009497121400e-01 -2.074000574293002365e-03 -9.997832951217143493e-02 -6.807684400746272235e-02 1.049571752388428827e-02 -1.428787350460233307e-01 -8.911409898870505109e-02 7.426372808547535009e-02 -2.450805632149665458e-01 -6.114463379696851580e-02 2.733359604925384989e-01 4.300354023141184090e-02 -9.788738995752614691e-02 6.510502266355147616e-02 -2.310097591204344492e-01 2.487115238456877597e-01 2.261128656122919911e-01 -4.186030823835894948e-02 5.019355866690828477e-02 -3.037227011183392111e-01 -1.302532157133889576e-02 2.277737105316647234e-02 -1.867426502878470063e-01 -8.111983070905794124e-02 5.542968096529638650e-02 -1.951118690802584599e-01 -1.122156577825612900e-01 -2.979982620960433884e-02 -8.150114887475701231e-02 -9.469647341245897298e-02 -9.877034362958184155e-02 1.736048626360327252e-01 -2.268848375000062367e-01 -8.407170029176888604e-02 -1.105091792478346963e-01 1.947161639941340575e-02 -1.984973492993230559e-01 1.790221024875064681e-02 -1.113060641453804261e-01 3.873877455445808027e-02 9.057326176205299229e-02 -5.107734283292097305e-02 1.698587223582142813e-01 1.541156275667917019e-01 -3.051552429704079000e-02 2.488180769736384745e-01 -8.452163112724193905e-02 -4.039027644461007371e-02 -5.361959470512405596e-02 1.600415740324880320e-01 -1.905023648535189573e-01 -3.758465008510838978e-02 2.490672009245594731e-01 1.023556909894523664e-01 -1.796579792729621761e-02 1.723423058399354280e-01 -2.900615270897455855e-01 3.716886816363834667e-02 -3.545033792165790121e-02 -3.812797834126756963e-02
-4.622761139824223264e-02 1.600519683273770033e-01 3.101246229898749554e-02 -4.144854593307214369e-02 -9.120787398048132988e-02 -1.075937035654657703e-01 1.963026475828869299e-01 1.038629672686183086e-02 4.331125811786419866e-01 -3.240015421160248599e-02 2.221491581320872988e-01 -1.029848944780604666e-02 5.890201640188851007e-02 8.432615150883494837e-02 2.394890968503496018e-02 4.927528740224479398e-03 -1.489873234123329226e-01 4.965707511672099589e-02 -2.266647871249010404e-01 4.220200664653384753e-02 -1.204888865263574610e-01 -1.437313153583043568e-01 -2.563502318025649984e-01 -1.247311926651510916e-01 -9.631742885116578723e-02 -1.471900933358988584e-01 -1.337366339955398456e-02 -4.723196533507410810e-02 9.210366725231687590e-02 -1.618269585082292641e-02 -1.344938042107206647e-02 -6.263995942217905066e-02 6.276478667241496001e-02 -9.684835412292128187e-02 -7.870479177327402431e-02 -2.381105632641030423e-01 3.452305996351377748e-02 -2.045597103405100495e-02 -9.954975672591659386e-02 -1.345361852906092892e-01 -1.342986252591132357e-01 -4.110621064874924180e-01 -9.400195754727872291e-03 -2.019330139213589281e-01 7.051282245086967770e-02 -8.254893026747771312e-02 1.850371084530528232e-01 -1.584561821916680990e-01 -1.346027963563939563e-02 -1.364087057257628299e-01 -1.844429328364824705e-01 -7.790514621193427025e-02 -9.079449210356782540e-02 -4.485204810859159258e-02 4.364245879279713553e-02 3.591112271113677118e-02 1.058348666015989509e-01 1.208352046143058162e-01 -3.839848440306724980e-03 -7.497007303469845063e-02 1.506839770800804962e-03 3.448408675261847162e-02 -7.019389734189071528e-02 2.639425379585143006e-01
-1.457971624023957774e-02 -9.746281873623736935e-02 -3.332869566314130561e-01 2.163866303078477993e-01 -4.954228007947000800e-01 -1.306019719285862746e-01 1.067880510497248164e-01 8.403094791856287327e-02 -3.412283500457159724e-02 -3.541065642464605312e-01 4.250441824777292932e-01 2.755308081578630025e-02 -3.170064632286822559e-01 -5.888734302523408737e-02 1.682175402529791641e-01 2.953241471040884969e-02 -5.221209274971826131e-02 -3.689614389896500035e-01 -1.414670096873877070e-01 -1.882412037698042440e-01 -8.374045525054531203e-02 2.724545725022696208e-01 -2.667381409647984203e-01 2.093404727165619761e-01 -7.508640432735944059e-02 -4.385525062234253701e-02 -8.935191744247990286e-02 -8.469955799152785458e-02 1.528346325227786795e-01 -4.565942739059678651e-02 1.761684121371583089e-01 7.550977070085952703e-02 -3.697247061581360184e-02 -5.389658012890541361e-02 -9.991142492965204847e-02 3.955634483200314300e-01 -1.147458891714699253e-01 9.134709023457443858e-03 8.338206571251360888e-02 3.871633364718456150e-02 3.094512220922395612e-02 -9.185554497300575660e-02 1.652350695522965818e-01 -3.115621524279044152e-01 9.144282528686212275e-02 -4.136021139966222782e-02 -3.414244459300793538e-02 -1.709577250491391698e-01 -7.733248682021214016e-02 -3.224295317186312015e-01 -1.210823893425413411e-01 1.687216464694509810e-01 1.815266110090045237e-01 3.601964280937388074e-01 -7.016940485211090039e-02 2.000672169842567516e-01 1.621360534532825456e-02 1.847688357705491724e-01 6.868973013334518651e-02 1.340963611761394891e-01 7.833914614133208679e-03 6.815412422843283857e-02 1.259360789100037736e-01 -1.218276822439377377e-01
9.295304900194697323e-03 -1.938473228893958789e-01 8.340157977829003311e-02 -1.220817349077146091e-01 3.086918556450585771e-01 1.251543907494400143e-01 -1.395221542374847912e-01 8.940023414380109112e-02 -1.636943281181265364e-01 4.533351389902309792e-03 -2.033724438933899592e-01 2.928783473043985452e-01 4.592453146416111687e-01 -1.591550082668133359e-01 7.725640610259056594e-03 -5.051703211145291278e-02 -2.930825537006870873e-01 -8.601233545759311150e-02 -5.632808571628845906e-02 6.240533302540202110e-02 -1.275201067688818968e-01 -1.709615280895122602e-01 -2.094421465253448050e-02 2.851544682699932651e-02 1.222221469981357445e-01 -9.140842687772578190e-02 -1.012081458603574513e-01 -1.913220918568962758e-01 8.668904901637379534e-02 1.405055960702509821e-01 3.195052311418647428e-02 2.436609144351016831e-01 1.183799451013208826e-01 3.359822862590200812e-03 -1.082223257987719595e-01 -2.064183194084452111e-01 -2.190985355101676690e-01 -1.882532219248806982e-01 8.059273847546799541e-02 -2.238036588139225846e-01 1.058561929001748114e-01 1.546655738051603834e-01 1.962837122274735946e-01 -2.100139321255880265e-01 -2.501530725874163696e-01 1.199793392795324848e-01 2.024332622954229111e-01 -1.444664084294957906e-01 3.941603137198458895e-01 7.397434558172555352e-02 -2.512556755811887199e-01 2.080187273337473775e-01 4.539224401466474684e-02 -9.806671372491221339e-02 7.425851055087606678e-02 -8.661957791669583351e-02 1.940848834984950366e-01 1.523323977608766755e-01 1.211043236558313752e-01 -1.028258788981049193e-01 3.273401351443042118e-01 2.606717663044741742e-02 -2.645899972913242845e-02 3.525379548962777939e-03
2.240104569953448865e-01 1.861121886383227397e-01 1.033627513953477434e-01 1.162379019118012745e-02 2.316630008062306734e-01 5.723419881271789994e-02 1.046043290325027048e-01 2.024576372851413786e-01 -3.386563674523044853e-01 -2.659937363043077818e-01 -4.471958929495999935e-01 -9.960090513859712336e-02 3.254202459542083758e-01 2.605531095126798272e-03 2.496155524087286248e-01 -4.551494948066582558e-02 9.736728392376510499e-02 -1.533112783559201775e-01 -2.265527518275845253e-01 -2.333478830679982796e-01 1.148212426515227563e-01 -2.326902762479257369e-01 6.289372859779839009e-02 -1.817802209124437240e-01 3.811583118912068580e-01 -7.293826040794990084e-02 3.287796137944604125e-01 5.610943750110478079e-02 -2.143869265885975095e-01 -3.782251971036005300e-01 2.261005811499561258e-02 -7.917309214262994999e-02 6.086625614433945064e-02 -1.467446439848564266e-01 -8.022501299387599372e-02 -2.083124770132991910e-01 2.600049194685710163e-01 -1.906831550637911599e-01 2.418919873955321931e-01 1.365054119753349449e-01 1.030046351736873533e-01 7.708671139873890521e-02 1.019222988444912492e-01 1.099063703614654858e-01 2.429766574487044611e-02 -1.806866586605663239e-01 1.383733712349786461e-02 9.940193407027389516e-02 3.593253731043632437e-01 -1.115489498571548554e-01 5.643948800652333255e-04 -9.080270473865476033e-02 -1.742934978688594205e-01 -2.759328796262380257e-01 -8.055326680720059640e-02 -2.831219762103942550e-01 1.065150866299856142e-01 -1.080308793788730126e-01 -2.316152618721603884e-01 3.757569650721218069e-02 -2.267527984788943879e-02 7.757537671623186692e-02 -4.017175263298136123e-01 -7.354963192854017950e-02
-7.761471986991252958e-02 -1.835607709729722981e-01 -1.019570924642103915e-01 6.692697981460889178e-02 -1.998191334949314113e-01 -5.328533346378259289e-02 -9.427363704145513834e-02 -6.101924623343357723e-02 -6.045859224640666961e-03 9.320119046178498498e-03 3.631233422932333976e-01 7.614527113627651833e-02 -8.261612568152679192e-02 1.568722810256037437e-01 4.492730509283617002e-02 -1.451559914452985878e-01 -8.636027586509598120e-02 2.377717550124502487e-04 8.427269315329000143e-02 4.214660572979933573e-02 2.031469511802514073e-05 3.016083383798839890e-01 -3.678745971582177143e-02 1.570750715681897836e-01 1.612234172510865551e-02 1.686245513908915528e-01 -1.290253706570036463e-01 -1.103558324490644220e-02 -1.926134493638087183e-02 4.779167620732223398e-02 -3.379988375579292409e-02 1.090691626907649842e-01 -4.620997695531194049e-02 9.913426514957657254e-02 -6.671932522977620517e-01 4.147294096554616782e-01 5.704267062241032832e-02 2.876053228867146358e-02 8.191310701020422524e-02 -4.688162604569922481e-02 -2.384190859906304971e-01 1.295325794126860330e-01 2.418209928713605517e-01 7.944134342888509170e-02 -8.125377687933268978e-02 7.324324823121496075e-02 -1.218126784999152765e-02 -1.591318723208825225e-01 -1.067702887589517396e-01 -7.800676285484556272e-02 -1.627273499035804261e-01 4.988713679976561344e-02 5.541383888269325875e-02 3.152359713789787410e-01 1.960668779673685469e-02 1.882940705861136099e-01 -3.042260142729747985e-01 6.782422041443288141e-02 -1.437689143424565885e-01 2.021321137999971818e-01 -6.918281135060386222e-02 2.438757706024982999e-02 6.082904519134469529e-02 3.370123246155012908e-02
9.204944416020414966e-02 -2.369547582279731279e-01 -3.727801250865558358e-01 5.322335124101371107e-02 -3.235837510338798184e-01 -1.167367652179486931e-01 -4.682769504267007138e-02 -8.698073876042233810e-02 -1.367678004421215288e-01 -3.397755918266642111e-02 1.359656767603516780e-01 -2.726556960943864877e-02 -9.859558252812833379e-02 1.148408487315758231e-01 -1.000294316370315961e-01 1.266552761808981131e-01 2.701544019888954540e-02 1.161380371980797188e-01 1.041116639705573915e-01 2.197216531400482398e-01 -2.366585951799649729e-02 3.025059977200215133e-01 -3.093735411267697355e-01 4.928186388270863749e-02 -1.899366681302775209e-02 7.427282657177706028e-04 7.320528400816422865e-02 -2.501056158197474955e-01 9.197168230634858443e-02 -1.057248384779037043e-01 -1.823534474585515597e-01 9.763478850340960580e-02 2.380206285424049661e-01 3.571786718976169284e-02 4.074417327392412108e-02 1.976219458126783624e-01 1.303899824328633161e-01 1.621005166086134097e-01 7.206372230349834818e-02 -8.674693012867386310e-02 6.699888538684180272e-02 1.915792755920887602e-01 2.024876085684066962e-01 -3.224356330216864297e-01 -1.035166884170284629e-01 2.700932421822178631e-01 -1.729696443529503691e-01 -3.918254544484654767e-02 -1.983421478129715129e-02 1.074674920618191865e-01 -2.830224461342698561e-01 -7.246991110193687358e-02 1.355292777331301365e-02 1.850950102550454404e-02 3.030991387422176664e-01 -9.705705821037100001e-02 -1.288140896147396131e-01 -7.473487497231087046e-03 -8.778996071671665846e-02 1.307276372669012587e-02 5.844751824434182841e-02 -1.154742918752321573e-01 6.752929837899949994e-02 -2.633116821981952294e-01
1.295680012059977071e-01 -8.474890140865981580e-02 -1.024042971855460421e-01 -1.471368459152908037e-01 7.473100999899763563e-02 -8.359339354186645643e-02 2.638036400546880933e-02 4.411003273264522268e-02 -2.941937595105661440e-01 3.749221672911540737e-01 5.319171240098628795e-02 -2.898052567114529632e-01 -1.334741125436327003e-01 -2.784230004518492216e-02 -1.447946888752112971e-01 -3.123852661039151490e-01 -3.187349016663367784e-01 -8.284294621361701361e-02 1.931606259297903305e-01 1.292598606408582873e-01 -5.804416461078721473e-02 -7.125383963066629633e-02 -2.192352014733853216e-01 -9.147364274383230909e-02 6.543597143914597902e-02 5.305946988671640663e-02 9.594327176772458887e-02 1.359096811885697476e-01 9.073974297582704240e-02 4.423826843335126324e-01 3.295802254372822565e-02 1.608130984411008657e-01 -8.929749561105497502e-02 1.188197374472537704e-01 1.141751291009517055e-01 -1.712316138711659497e-01 -1.894271001488975759e-02 -2.034653502457116694e-02 6.366370355192475794e-02 -2.020739269476665156e-01 -2.427298692488716880e-01 1.663301884546072029e-01 -1.657549948927672934e-01 1.360465889332690935e-02 -2.811318220429832593e-01 2.058559279133330144e-01 1.183164096347418259e-01 -7.723807587347848724e-02 -3.531171643337651656e-01 1.450557256014816665e-01 -5.819533205243050678e-02 -4.655566680855432668e-04 -5.590668836491357457e-02 -3.643986785198968792e-02 -3.083456051141024723e-01 1.781624527263144242e-01 1.139655230207198278e-01 2.338103697041644113e-01 1.108960872989517635e-02 2.948641035370788144e-01 6.174754441234732438e-02 2.116896918121975169e-01 3.121875121675831560e-02 -3.618087226169836024e-02
9.133230272785658466e-02 -1.389884612398694930e-01 5.409710100316856250e-03 2.989629238441683379e-01 3.631558868169784682e-02 -2.184988939881004066e-01 5.865340830685044325e-03 -2.628026669831226014e-01 -1.826451181445678529e-01 -8.766251200134871080e-02 -1.769386572919500952e-02 4.963030386816656182e-03 -3.559080568603947142e-02 2.777703753127653830e-01 -1.326947298726055824e-01 -1.960350325540885230e-01 2.008326688503544177e-01 -2.652547826034308276e-01 -1.206484258545402651e-02 -3.167068591397374788e-02 -1.777721453274155872e-01 8.353590899435436867e-03 1.958259871832607468e-01 8.831075363764054331e-02 -8.319506245240707032e-02 6.600315478863527652e-02 -5.320260395370552536e-02 3.453298438284837374e-02 -1.390611335948652161e-01 1.432316968900786310e-02 1.143792700068942542e-01 -1.645592822397897725e-01 1.068755670483980125e-01 9.472046310876889794e-03 7.039242688452604368e-02 1.046055411879922153e-01 -7.299788885626656842e-02 -4.755965276912153539e-01 -1.170001405281061307e-01 6.061378306892002688e-02 -8.214395182800937611e-02 1.250108635149635161e-01 8.045035393463258189e-02 -1.226963236489680004e-01 2.259182915310861683e-02 -9.382266752022203060e-02 3.320616944771924428e-02 8.358493004981930319e-02 -1.265267089810636347e-01 -2.291164272352307907e-01 1.317015468790518340e-01 -2.774977304533596256e-01 -1.874465520840161437e-01 -1.729816102520954912e-02 -4.459569892985742329e-02 -5.976843172186783841e-03 -1.181573133437884976e-01 1.632780790359914525e-01 -1.161789592696393786e-01 1.114208494125294713e-01 1.140587374668064619e-01 -3.348969423700417503e-01 2.681482511020526899e-02 1.421217677365216037e-01
-2.885380267929082022e-03 4.675570290088442577e-02 -2.297527292011714850e-01 2.411535775139957982e-01 -3.193202635637177877e-01 -1.780956335750124020e-01 -4.525560710222704258e-02 -3.128253319703534763e-02 -8.459320444126607053e-02 -9.335045027141897211e-02 4.074218612877762435e-01 1.116178165866293648e-01 -1.807674811766486478e-01 -8.827743450945862991e-02 -8.640659801945151097e-02 1.551615965845664080e-01 -3.985265935882189442e-02 -1.344625111465039546e-01 -9.039829928496966038e-02 2.980132810737579074e-01 -5.921334062189091002e-02 2.754133759229817624e-01 -2.883363950652652052e-01 3.208034960321586304e-01 -2.132509965015017828e-01 7.501414842657200266e-02 -3.060556982944532822e-01 -3.808330403176555801e-01 -6.695393550764694446e-02 2.456659325144051539e-02 -1.190465716729148353e-02 1.125587263610011574e-01 -4.688985624901562815e-02 2.130396714473419273e-01 -9.012105315589043208e-02 3.211137302156197859e-01 1.306990228416523014e-01 1.571988304678905574e-02 -3.881812235115451037e-01 -1.727822947806665482e-02 -1.835156280990783983e-01 2.693871284737217771e-03 1.807557635817650943e-01 4.098757780162666509e-02 1.382911687941980605e-01 1.427012725614177358e-01 -1.093211812449872561e-01 1.064370077003596315e-01 -3.696987102050614538e-01 -4.959714769160909059e-02 1.232396730053839790e-01 4.117545238966279220e-01 -4.529675740170539811e-02 1.878946072185033178e-01 1.070944147946529118e-01 -4.808600782016844016e-02 -3.083362071135882509e-02 1.001822511126529147e-01 -3.441363539084748568e-01 -2.281694014925022551e-01 1.248060515432105819e-02 -2.351429771659244994e-01 1.875541312822276707e-01 -6.416634172906367228e-02
-6.494936999932383881e-02 -9.537961247843718821e-04 -8.950534984260688498e-02 8.477910897688799297e-02 -8.605353922184059978e-02 -6.480797237715665848e-02 8.631093305960131634e-02 -1.596645138052178725e-02 -1.438120241838721780e-01 -1.888159093428392887e-01 2.110224991499896341e-01 6.653114315633115727e-02 -2.702828060291104229e-01 -1.328666056504361481e-01 -3.021275166697661232e-02 -1.674944816159443794e-01 3.888410358072703910e-02 -1.663279473937951669e-01 -2.145376210233330971e-01 1.374144048291558451e-01 -1.379970244163927773e-01 5.604976909762468540e-02 -1.159467424917729333e-01 6.492103576150651256e-02 8.642977928679071442e-02 8.199797439162588575e-02 -2.435358363047848002e-02 -7.777493471189490803e-02 3.309231452508584054e-02 6.086940231127736106e-02 1.934384150526035073e-01 1.450707881335381033e-01 -6.034415002701516012e-02 3.614019331669445223e-01 -1.825493257114360057e-01 2.294526440345842078e-01 1.164548433212105050e-01 -2.024240375677197057e-02 -1.243670090391386929e-01 1.224150173234021116e-02 8.689638427173275448e-02 -2.037730430979880769e-01 -1.416418654606004801e-01 -1.587037222577778461e-01 1.342451416702679368e-01 1.044938070643708361e-01 -3.830747934608754769e-03 -1.686566002481576509e-01 3.312413328194887541e-01 4.260084013627562366e-02 1.666678471059142991e-02 1.888442078613787878e-01 1.938946175850666739e-02 2.216546468156563865e-01 -1.867414016449188141e-01 5.512901483325405999e-02 1.534056665332167169e-01 1.460133671290639312e-01 9.053918800025408109e-02 1.625103786265288119e-01 -1.746032445711770964e-01 -2.433868189172084251e-01 1.206314667527797896e-01 3.977318974454438494e-02
-2.025913206496904873e-01 -1.236276806084875279e-01 2.807710924233754873e-02 -5.522059036245850067e-02 6.925963876393527452e-02 -1.518679051407735570e-01 7.947255453231873157e-02 -1.646723812334763004e-01 -1.636336458069956312e-01 1.621883750768757515e-01 2.649984914080296683e-01 1.233749075730324468e-01 2.052688761861225144e-03 5.157070541903686217e-02 1.146684204456978190e-01 -6.261961260898142589e-02 3.576493180143258677e-02 -1.870904289962793399e-01 -1.924617006319824242e-01 4.272372527284427901e-02 1.756379224427355723e-01 1.341132226898971401e-02 -1.107275593769207478e-01 -8.150014426389531885e-02 -3.154679895271430418e-02 1.467667936038923870e-01 7.885348819515414220e-02 -6.564876332854197027e-02 -1.306789591083922231e-01 -2.626997700737824376e-02 1.859314072342659052e-01 -9.417442322456333337e-02 2.848324867916040420e-02 4.330899241364487978e-02 7.112877395654490509e-02 1.785216779096554171e-02 2.521139041443151360e-02 -9.607563107070275776e-02 -1.085128185612550464e-02 1.160391027549225323e-01 1.052940195761573189e-01 -3.908193645941315970e-03 -2.398036135796638435e-02 7.949493035631164869e-03 -1.733395718964230725e-01 3.267001496823603857e-01 -2.448788585425671904e-01 1.267609092045099070e-02 -1.331278027401655746e-02 -8.000648835543060222e-02 -2.627596200380886982e-02 -1.979605544978972342e-01 2.229806229693371555e-01 2.923411909088049002e-02 -2.858923359358246305e-02 1.984536257574822174e-02 -1.135051123756251057e-01 -1.221585160768796051e-02 2.484016508921388366e-01 -1.058680110871824606e-02 1.749740719642292885e-01 -1.081043870315120531e-01 8.296002705491554302e-03 -2.972084232213416666e-01
2.981547621219782229e-02 3.414354077013684319e-02 -2.219284210165928597e-02 1.189363831806653227e-01 -3.216709002211861623e-01 -1.398685837567844280e-02 -3.786411876549101996e-02 -1.076138023408762107e-01 -1.963072251750803965e-01 -1.592956841542906843e-01 6.486003836106900289e-02 8.556615255001757958e-02 1.295032463981955484e-01 -1.564735112626250597e-03 1.216630522559630639e-01 1.126794412159474873e-01 -1.861365116758995630e-01 4.282966821574491628e-02 1.075858029655083967e-02 -4.394267024865972093e-02 1.331717350302890346e-01 1.562010696111030585e-02 1.906253191404685965e-01 -5.190223052638421458e-02 -7.079799664730973552e-02 1.111039647791495916e-01 -1.562899023633106121e-01 -8.739559005252580531e-03 4.733463443418369637e-02 1.294270957309825998e-01 1.060768729098193197e-01 -1.545845457649719888e-03 -2.824689286245596342e-01 -2.023889179817236761e-01 5.771055386960950023e-02 2.067700810527832792e-03 -2.316026662801195114e-03 1.580789649189380183e-02 -2.832041238030785224e-01 1.417093921353128061e-01 -4.699319226432670249e-02 -6.023870907831210125e-02 1.626567982743636898e-01 -2.327246425618886561e-01 1.843972402228219801e-02 -3.657136170397530528e-02 1.103091018947869734e-01 -4.091330560978585773e-02 -7.461675029727853287e-04 -1.297909220846157619e-01 -9.696321734639359868e-02 -1.674660594207567632e-01 1.115951814409588128e-01 -1.227607243919449365e-01 -9.863277424900281087e-02 -2.613612820224089361e-01 1.022469642416745234e-01 7.487393004259287888e-02 2.225334873772951139e-01 -5.583605582338238560e-02 -2.905477760445982632e-02 1.319253859737900547e-01 -9.717901444730961402e-03 -1.656899553667733338e-01
-1.220986445753974720e-01 -2.219518628758498577e-02 -8.194252920886226088e-02 -5.570396513524761978e-02 5.626407724976668911e-02 -4.302345307575348304e-02 -2.795335271723192183e-01 2.463996403733508672e-02 -1.122406230910992508e-01 -2.410496858024343061e-02 -3.703380120232929035e-02 -1.284568402782746976e-01 -1.483966133807228527e-01 -1.392788304691577189e-02 3.105378070824001968e-01 1.299967979399365148e-01 -2.214124175188799670e-01 -2.213342661920271737e-01 -2.700866412803871498e-03 -4.830988630762577535e-02 2.324578509680289284e-01 2.827732446599016680e-01 5.587510358299333305e-04 -1.662283838880402112e-02 -1.110500428619482505e-01 -3.566863665703166181e-02 2.418563196102573587e-01 -9.836974989008036296e-02 3.835850639784479238e-02 2.153849618720378445e-01 2.958731004227525552e-01 3.011348863074437832e-01 -1.002890418288221591e-01 2.302914940240629316e-01 -9.994959020249992096e-03 4.970972614602055945e-02 2.208209008615067553e-02 8.751592304114746285e-03 -2.221848065516120879e-02 4.160551817830527299e-01 7.152244838226447243e-02 -1.633749502624633754e-01 1.414126328821486422e-01 -7.471217918322044758e-03 -6.906548900670128957e-03 2.087718357420450810e-01 -7.162951800053493634e-02 5.831349027847656380e-02 1.079404708859514894e-01 -2.029976849727765376e-01 -4.764625766621987668e-01 -1.382782992315604864e-01 -1.881064177738247514e-03 -3.342365006358055668e-01 6.599223528099767977e-02 1.012036197518412922e-01 -1.490532082713467155e-01 -4.824329992840999809e-02 -1.153589159761162913e-01 3.290801163291466738e-05 -7.195721540919032544e-02 -1.635533206293769137e-01 4.810186231483448878e-03 8.832075372548608971e-02
-2.352145568432992967e-02 -2.502258222487917516e-01 -2.815782923648699199e-01 1.727618537348507566e-01 -6.634458105416981763e-03 -1.664381912366515170e-01 -1.214266303505717182e-01 -5.992971486786134727e-02 8.474505977142603175e-02 -5.630995981542690626e-02 1.381746544989024827e-01 -4.596002868317369122e-02 -1.825143395945988678e-01 -4.303571742700255109e-01 -8.325620306137394844e-02 -1.614634703610852151e-01 1.299236860963977613e-01 3.352689371557339149e-01 9.952384205109306159e-02 1.845941464927567943e-01 -9.794085153137255251e-02 1.600503915597790705e-01 -2.360662505913480591e-01 1.895501457890577113e-01 -5.287755940969578183e-02 2.384896026616336803e-02 -5.439923732418998348e-02 2.392245620558397512e-01 1.271403111433616895e-01 2.837152795721398918e-02 -1.026388439643365069e-02 1.856847313607930261e-01 -3.737907807065745519e-02 6.051233714751752535e-02 -1.411457961320746433e-02 2.221698965829460581e-01 -3.837583370981334507e-01 -1.352949534699915968e-01 -3.878179556682920942e-02 4.684918444491829176e-02 -1.707492439458356270e-01 -9.662303899139708385e-02 1.169864364198675566e-01 -9.308134841082822686e-02 5.448364862362153893e-02 1.322536118842212727e-01 -1.112852559664833235e-01 -2.665644390227894234e-01 -1.749583110633620153e-01 -5.100198433860797520e-02 5.611746733258853037e-02 1.286956312856008811e-01 1.933647105165489100e-01 -2.025621168014461737e-01 -5.342793268718045580e-02 -1.063973912188987958e-01 -1.409200035361771186e-01 1.983772184156804841e-01 1.947233794901595538e-02 -4.336505040203782191e-03 4.048648515977305851e-02 -6.523591907630849063e-02 2.530838669976818653e-02 1.665139445319206157e-01
2.979431391071657442e-01 -2.628535147493379562e-02 1.646108712348771236e-02 5.560620202864181849e-02 1.035507524141776742e-01 1.134341032334477695e-01 -1.108866801310448985e-01 5.132181862709766368e-02 -1.691689239928843499e-02 -2.053394858406838719e-01 -2.959591658569871719e-01 -1.962659618881520962e-01 1.308953531965897921e-01 1.390844588608309840e-01 -3.047393432605904895e-01 -8.727521093820000964e-02 3.035362785786940298e-01 -5.630994884740360418e-02 1.436660188468791843e-01 -1.545374259864134570e-01 1.954861864861520138e-01 3.532773050056726150e-01 -1.558487276241299346e-01 3.785761873493845991e-02 1.768502040968770173e-01 -1.674056305598807248e-01 4.439794408693754219e-02 4.048549734051384158e-02 -1.828493275168431853e-01 -2.001050173850212888e-01 -3.961546259841911000e-02 2.590695044065703390e-01 2.207972302416930099e-01 -4.240223777577123432e-01 1.686918820092433158e-01 -1.448884593855643832e-01 -1.859837788909884937e-01 -1.587318674025371343e-02 -4.209897013541932798e-02 9.605516237087756426e-02 -2.719711826132094057e-01 1.795090002580577437e-01 -3.015407428348577112e-01 -1.282094460619077614e-01 1.182286506879569876e-01 -2.145213095304484077e-02 -4.164454855282857804e-02 7.913515812580301789e-02 1.913086451925746501e-01 1.143506519486827550e-01 -1.606131606722762117e-01 5.495418550670735230e-02 7.358270709228877104e-02 -1.152150909385033367e-01 7.239221937896282710e-02 1.460822512279880137e-02 -1.277132262308406097e-01 1.379745933198904817e-01 1.516524601206061806e-01 -1.929255344055688659e-02 2.346478651417718553e-01 -1.592683254153109129e-01 -5.084330627184448226e-02 3.239567040689528971e-02
-1.381565098397039004e-01 -3.487840388987508700e-01 -7.930007699592458992e-02 -7.609973762517077689e-02 1.678769413987925285e-02 8.721409419057600532e-02 2.496864407781885786e-01 8.211088030470232307e-03 -1.458892748040822307e-01 6.173456136686928525e-02 2.027287983204878116e-02 1.383317358675345554e-01 6.923149554298134445e-02 -1.589602848433779581e-01 6.345677967884581772e-02 -2.095515676120526111e-02 -2.107556700762658330e-01 -2.967082896246244772e-01 -7.332264468116977962e-02 -3.652653367547404328e-01 -2.600764587359641160e-03 7.143105147430296731e-02 -1.272077033601076990e-01 -1.888162371471655832e-01 2.037209649760451588e-02 -2.207148296063529969e-01 -1.671536258289968713e-01 -1.280947799797299835e-01 -5.042109102137628564e-03 -3.296708743506994166e-01 1.498362077082601163e-01 -9.454246405963721844e-02 -6.604360977874686178e-02 -1.321668866444470139e-02 1.502141687077850896e-01 -6.947959255871236084e-02 -1.783366255984708271e-01 1.856914121191317046e-01 -2.303936314288331511e-01 1.513254162842675166e-01 1.066789709595696890e-02 -1.462427488379191010e-01 1.431080748382950740e-01 1.786843493033568597e-01 -2.109412039173784170e-01 -5.177198832446889415e-02 3.218380540494154007e-01 9.139549616352334038e-02 -6.929811952615934356e-02 -6.862031823847331014e-02 -1.777532830245539749e-02 -6.366236101873180842e-02 7.847349863429946282e-02 -1.569880971882693099e-01 -3.005789063626385649e-01 -8.576333926617295267e-02 1.078105028603648652e-01 -1.628172161539449270e-01 1.405009480046778836e-01 4.469026851444484610e-02 2.664044807314246976e-01 6.543795155914510289e-03 -7.481089420700069194e-03 2.018959593384554441e-01
-2.662290146515721226e-02 -3.277190135514106845e-02 -1.718372488974221346e-01 -7.532520579494125790e-02 -1.422395344394647987e-01 -1.124956174119226548e-01 1.454753390639505761e-01 -3.143769566814148542e-01 -2.045908077109895862e-01 2.067496834240610815e-01 2.156035357359426530e-01 1.025177267527466046e-01 -2.412739290571382644e-01 2.053188352147047591e-01 5.160728207698180720e-02 -8.464175450867410244e-02 3.104442382274705259e-02 3.069003869421860209e-01 1.445323112270650856e-01 2.641522151662759055e-01 6.890488794927132621e-02 -5.365401169683131632e-02 5.521383574037034420e-02 3.073477084229257472e-01 1.281122977174248556e-01 3.053442360841668868e-01 -1.649067850035329519e-01 2.789290515227920708e-01 1.592965791037857515e-01 2.198312540869159712e-02 -1.277029186346673173e-01 -2.681623450291788571e-02 1.254488473459970665e-01 1.784968260276054430e-01 -1.394606140887529599e-01 -1.331731846756015886e-02 -2.005088421960221634e-02 -8.010883574935558082e-02 6.847655053310711115e-02 1.466550157755067418e-01 -6.898358057458126025e-02 6.656058513801520193e-02 -2.336610370799097613e-01 -6.147637594471089262e-02 9.829947875363144461e-02 9.399786466493932624e-02 -2.876029012156089415e-02 1.805608191110333327e-01 5.343911447047744977e-03 -2.226540104230762263e-01 2.169954604329622783e-01 -1.028540464420616037e-02 -6.397116646850148358e-02 3.658297755608895252e-01 -6.726515467694275420e-03 9.093199876434326923e-02 3.560927246403840229e-02 2.362639627381527690e-02 -8.810456997426587000e-02 8.079018024142009535e-02 4.912259494669344445e-02 -1.017713692337315762e-01 1.993845889492248669e-01 4.834762228839230985e-02
-2.040424215318182091e-02 -7.699760447984321798e-02 -2.686925508463316459e-01 1.552766944036552133e-01 5.031472098748789035e-02 -1.515208023066710596e-01 3.765423898595915420e-02 -1.505133168351644457e-01 -2.876649201296150454e-02 -1.013555544508633471e-01 -7.427685795618454989e-02 1.111816779748391742e-01 -2.207323215545574369e-01 7.195011359852171440e-02 -1.709103825777962826e-01 -1.476688891258606251e-01 -5.024360352325701884e-01 1.349368505599901798e-02 -1.671441488941758924e-01 8.902864479112956864e-02 -2.473528720301609030e-01 3.135930241159668452e-01 1.261103768635890299e-01 -2.369533662069935390e-02 2.434280646176917584e-01 2.283797323694351511e-01 -6.380535526136259239e-02 -1.040114579904666270e-01 2.220792690974563929e-02 -5.405863085145187069e-02 -1.097455865652458527e-02 1.106338270664915385e-01 -1.398409945044233049e-01 1.117984312761931692e-01 -7.112566713682352826e-02 7.285227917329824276e-02 1.541855061109628777e-01 1.970482147234285664e-01 -2.470255317435339840e-02 5.254925368300472632e-02 -6.053064714824600914e-03 4.119674169291815194e-03 1.496391180497520512e-01 2.947055846321338605e-03 1.418351040207252722e-01 9.819284114566609323e-02 -7.768663258927549498e-02 7.486592263830033588e-03 6.551229551569058562e-02 -8.996598514928937085e-02 -1.063688164142969350e-01 9.427886926970807657e-02 -6.424382174343128138e-02 3.325139267356546080e-01 -4.607068640333617654e-02 5.564540361034320259e-02 7.064220946748545060e-02 -3.679446895353124386e-02 1.278152903303302612e-01 -3.506308786857791765e-02 -1.551581552646320306e-01 -2.045949731548344641e-01 1.685363818590205343e-01 -2.680251048522898014e-02
-1.313894289865439602e-01 2.311355242573893132e-01 8.654988677607422520e-02 2.101894518034757853e-01 6.316862317867120991e-03 1.050680962027873422e-01 -7.748119884820549308e-02 1.072671519076246055e-01 3.433703760181112258e-02 9.623852552128928095e-02 1.239686744259618917e-01 2.170851285133700292e-01 -1.461902439024866107e-01 1.749956932081626892e-01 -2.140499684137668612e-01 1.975715083948930417e-01 1.400259019271657690e-01 1.873715378486354999e-01 -4.471638118363734093e-02 1.307068281611845906e-01 1.987189130413678784e-01 -1.866200874196929649e-01 3.032583471336705583e-02 -2.432952098271675204e-02 1.118039075710513253e-01 2.699888639895973164e-01 1.209411747461206638e-01 -1.646542369967855801e-01 -6.608176888387609638e-02 8.035568106603571681e-02 1.438485940023706833e-01 1.501753160840798573e-01 5.803297087715510172e-02 -1.159646006377151733e-01 6.888922879024762802e-02 5.880941764333213334e-02 -4.245581973375990581e-02 -2.253496109009193726e-01 -2.017111911640462329e-02 -1.165144214746426932e-01 -2.641785861031685223e-01 -2.497579016787409081e-02 -7.198100916789702819e-02 7.991944040637979918e-02 3.972713744426878413e-02 1.671860607284064715e-01 1.347408883960773684e-01 4.922514472145718412e-02 1.235298370116491851e-01 1.641741911672551513e-01 3.615015794919237413e-01 1.446690131631181257e-02 -2.429081017724906144e-01 -4.801122709595857796e-02 2.071284663313942564e-01 -5.305366981817501160e-02 -7.507299466584763104e-02 2.162248150367516442e-01 5.713049786423728127e-02 1.684138698715708093e-01 -2.203817245946401437e-01 1.512050837929714286e-01 -3.537910016289311926e-02 -1.324108489284856194e-01
-1.601232738386523247e-01 1.423010829455575998e-01 -9.450754773883092430e-02 4.402481747433583115e-01 -1.451083416923797387e-01 2.245844526333309193e-02 -5.221530780604350525e-02 -6.931039163500368749e-02 7.819260348354700740e-02 1.727227527607884394e-02 1.807627921507381497e-01 6.786372055227519323e-03 -3.855063708738947215e-01 2.820366345731846747e-01 7.767791200755654046e-02 6.368694818565996500e-03 2.044612905421547000e-01 -2.391362139968177813e-01 2.230797232167486266e-01 -1.476337371654431463e-01 -4.017864479055805599e-02 4.048496168474835510e-01 -4.228287119117963427e-02 1.755292054679282177e-01 -5.526328866065808969e-03 2.933659895036196952e-01 6.781962391365857490e-02 -1.757617185584948449e-01 -2.667044513000007763e-02 -2.178742096660332139e-01 -1.532755960465829181e-01 1.264885428825744118e-01 -2.203815438282047956e-01 2.625067415945979143e-01 8.618020784702873360e-02 2.389551471959194540e-01 3.971967121412578461e-02 8.822659230556464949e-02 -6.067699625429028715e-02 8.586303474088836929e-02 -1.633877327616972963e-01 -7.771277377838457789e-02 1.438740690638634079e-01 -1.641782501155078511e-01 1.991405612405272307e-01 1.388247464904205086e-01 -8.673996100195958958e-02 -2.871763952686431920e-01 -4.743731788786537812e-02 1.251740204320916372e-01 -1.914787506323676891e-01 1.041099405541173195e-01 -7.010725954832204565e-02 3.852616476344989382e-01 7.204657211937094685e-02 5.188569228516910492e-01 -5.353194677554132253e-02 -1.340639585411276336e-03 2.286097803240976500e-01 -3.280129461531576807e-01 5.132126332679252945e-02 -8.898101268276711884e-02 1.792670660521868686e-01 -2.172857309869839770e-01
-3.162739944366001477e-01 1.304772481734002842e-01 3.579944742230189991e-01 -9.518235460471463627e-02 2.743274819616596250e-01 -1.268974354123049708e-01 5.511865613001062925e-02 8.161010151899426857e-02 1.447890771937526411e-01 -5.450695765515186503e-02 -3.504829561840923091e-01 -1.007864209984538351e-01 1.658471366836982708e-01 1.115241046324855489e-01 1.493241401645833411e-01 -1.338567051988844570e-01 2.710301127662004816e-01 -1.479495429242277393e-01 -2.112472176933689050e-01 -1.499612718232937736e-01 1.435634986190940376e-01 -1.335366627407306717e-01 6.466616023915806866e-02 -8.543250800104293385e-02 6.026536655612470955e-02 -1.153601620747515127e-01 2.949365575789023031e-01 -1.218273974741945591e-02 1.454952503794303409e-01 9.243404863311245612e-02 -5.790417399874967647e-02 -2.280098433930341506e-01 -1.195076033278154454e-01 -2.264763042704278362e-01 1.683220029884623381e-01 -2.893555926578190163e-01 -6.454528732469212715e-02 -8.186565292291144227e-03 -9.246038619470277331e-02 -1.549365096433642786e-01 -9.709763295364656766e-02 -9.446183065857143013e-02 8.969036626424012337e-02 -2.006518534519566299e-02 1.348296066129246740e-01 -1.648306042126453375e-01 1.695149637502035012e-01 -7.147477781365078886e-02 1.178535355353687725e-01 1.409123456777726102e-01 1.855781622143618803e-01 -6.068596549846302229e-02 1.167149388918128361e-01 -3.422114466225232854e-01 9.215073454307580458e-02 -2.610698549905516863e-01 2.168234256025178552e-01 -4.091816102079212647e-01 1.607886506003920746e-01 1.145590793277156544e-01 -3.963519165440979042e-02 -1.423424216524791508e-01 -1.109814570548354473e-01 -1.702524174224046560e-01
1.297444151296492654e-01 -1.687551195386585434e-01 8.794069989031100265e-02 -1.938813997398671218e-01 1.106988525232371484e-01 5.188157029059707603e-02 5.296931718348103779e-02 1.072770595483930889e-01 -2.133697425006317872e-01 1.557678312684759592e-01 9.326250890623659362e-02 -1.370829840784224263e-01 3.194941383840364524e-01 -3.041287117240140669e-01 -9.087254462606934868e-02 5.757141378411812643e-02 -1.611758069221625733e-01 -7.597833539591990204e-02 1.997912968539631018e-01 -2.191235420623535157e-01 2.725591283002982701e-01 -2.635525241402122409e-01 1.248405875352147504e-01 -1.521929235731038499e-01 1.629811039728131516e-01 1.019593892319379247e-01 -1.388492135947065609e-01 -1.217115720990227384e-01 1.611628002084670996e-01 1.792252183138638433e-01 -1.489163534263679700e-01 -7.958489730862283729e-02 1.748735900910948216e-01 1.664466820979448869e-01 -7.104996305091540454e-02 -1.942832743943750662e-01 2.816843967810451696e-02 6.492624802719260124e-02 1.534482197281422655e-01 2.132163251762740075e-01 -2.386875503448309399e-01 -2.117149928099038361e-02 -2.854112731948896808e-01 -2.755505897310362440e-01 8.668430156125296604e-02 -2.004211438675018164e-01 1.308831716983822613e-01 -1.100792526817433691e-02 -1.825434357411450936e-01 4.997470460664876074e-02 -1.073951663870254952e-01 1.165898429253380691e-01 -1.946079519974360794e-01 -3.562040276013393042e-02 5.081235739133595219e-02 -1.795140192762705589e-01 -1.534027073901702287e-01 -2.268388489032230684e-02 7.968369149385209904e-02 1.654479907502611202e-01 3.594649393128281356e-01 2.847202091893786258e-01 8.401003068235068927e-02 9.372713584087620509e-02
1.096948680466906627e-02 -4.571347527813420485e-03 2.494437458629595039e-01 -1.333153075112966830e-02 1.096550021036705180e-01 7.110444017042825970e-02 5.336044460518957894e-03 -1.938490766846306113e-01 1.178883068178413485e-01 1.958896534693929103e-01 -9.140849689994112737e-02 -1.630866594484883803e-01 8.748677662648979281e-02 1.945081117146116867e-01 -1.756607772962246738e-01 -1.780214213611931717e-01 8.351119354500063929e-02 -6.097515036616142810e-03 3.003028911444360349e-01 4.231436987537403466e-02 1.827763441868043848e-02 -2.821444986228130447e-01 1.141166502894665896e-01 -5.419637808166189591e-02 1.401246345298001739e-01 -1.753331184460022174e-01 2.719822724170896031e-02 -4.588435677513000993e-02 -1.652431508117716830e-01 -2.872876559855292444e-01 1.712697033032145322e-01 7.039657349237442296e-02 -3.699698938789715286e-02 -3.914647728289397804e-02 2.249426987513680407e-02 7.959493746734874753e-02 -1.307889106829523140e-01 -3.054403919335034120e-02 -1.404891193484208989e-01 1.534212421548793344e-02 1.402740598405460316e-02 -1.930272006681000296e-01 -6.350889122006324328e-02 2.165474984464486052e-01 -9.991528515042025216e-02 -1.692014603874625045e-01 7.976197591985337287e-02 -1.708700727929639285e-01 -2.184599077041122217e-01 -1.175289700789324725e-03 -6.497936207858506785e-02 -9.268808063621533644e-02 -2.035128226362499862e-02 1.592186837541761935e-02 -2.008331728427349000e-02 3.256603608766354130e-01 -1.867120006281554612e-01 -5.693791253518326254e-03 2.383660206625151379e-01 1.416227815825749636e-01 -1.987682989104395670e-01 -2.498395046109810613e-01 -2.672810135438622933e-02 7.873496099068461040e-02
8.606367981769939834e-02 -9.309207095844732049e-02 -2.993076197210077158e-02 6.298611306257739795e-02 2.243634931266572652e-01 -4.489557085079184939e-02 -9.691647197554822957e-02 1.036626692407534578e-01 7.775909180920151376e-02 -5.776389738825905840e-02 -1.142743398017940504e-01 -9.460434381990524833e-02 3.398731780827455307e-01 -1.770548140304996909e-01 5.756623272428067206e-02 -2.391943350221778768e-03 -9.893510426058990670e-02 -3.098816908774152945e-01 -5.797665602970036164e-02 -1.520069821354217976e-01 1.227492360018643397e-01 2.339795329688699327e-02 -4.791540479012500880e-02 2.198127642855450536e-02 1.637380004360254604e-02 -1.286636851844390750e-01 -7.197125905403241319e-02 -1.178317858096338509e-02 -5.660428556170887804e-02 -2.626202255180627720e-02 3.863546212260970253e-02 3.633306680408467104e-02 3.103960185342922729e-01 -2.984520829584314527e-01 -2.799566042265632868e-02 2.035459460609179427e-01 -9.747947277813784339e-02 2.588663168953707350e-02 -2.745942722130768066e-01 2.898618026442901629e-03 8.851293812406063610e-02 -2.940349644490048006e-04 3.167472951814614968e-02 -1.453573594601550167e-01 2.146352033058456787e-01 -2.246177778538615000e-01 2.627880323535952342e-03 -4.699834418025933963e-02 2.233772932783904541e-01 -2.030498139344345254e-01 6.973216558261409459e-02 -9.059443792085332403e-02 2.004495676169286977e-01 -5.233412477992390593e-02 1.644747219582581022e-01 1.749258470167499580e-01 3.921228327492455590e-02 -2.194355395929522279e-01 2.721830861478468644e-01 -8.359290562811984293e-02 2.721772673079422833e-02 1.878001426139508656e-01 2.358566927277058189e-01 -1.307418798659553960e-01
-6.819113363887894554e-03 1.282619109628205419e-02 1.912094106837669283e-01 1.786981949895944388e-01 1.452520195312302365e-01 -2.014897279017140858e-02 -1.792753200635636424e-01 -1.031399189161442825e-01 -2.467632317722605328e-02 -2.261511898331365622e-01 -1.723578886412567845e-01 1.219622581080696821e-02 -8.054854617105378090e-02 1.931283747173413445e-01 4.660043514719840185e-02 -1.014570566920772049e-01 2.799482313464452532e-01 -8.719675867705531380e-02 2.244833049459707963e-01 -9.885194027976308695e-02 1.044312446003847622e-01 -6.411749899357365064e-03 -1.056206046196422332e-01 -2.175502818819737838e-01 1.159009183453495601e-01 -1.573878393829454270e-01 9.859788201676260300e-02 -3.351622399089631554e-01 -1.348486105002254798e-01 2.289565406402547798e-01 -1.653020489040790686e-01 8.091920446982939219e-02 -1.649131579035763573e-01 -6.670323427710088404e-02 3.586427127952497573e-02 -2.431793568678699002e-01 -1.440495957648359471e-01 9.993737411391417913e-02 1.538862621930361663e-01 3.439338235550271766e-02 9.317948980289492145e-02 -9.291510270689425088e-03 5.251372191885710777e-02 -1.548510333150355557e-02 -1.887460563360024157e-01 1.186707599868041217e-02 2.243130884279892212e-01 -3.563595240834276923e-01 -8.712349508841048251e-02 -4.038345959254959622e-02 2.723806086516558644e-01 -1.742494735010288176e-01 7.754362848306327327e-02 -1.786034403406286039e-02 -6.757760046974362056e-02 -8.402919558410780476e-02 1.488854552756042338e-01 -8.323552401747424945e-02 -7.723249925255760984e-02 2.347038077873873363e-01 2.339111857591011645e-01 5.402919686194568999e-02 -1.264991927902977265e-01 1.837809039658112042e-01
-2.830647912246665454e-01 -9.337571835963107136e-02 -5.898428943986747802e-02 -3.055572625112513152e-01 -1.988751507287584708e-01 -6.327291651356760360e-02 6.629318703635625476e-02 -1.801432261125221479e-01 -3.261561137880696071e-02 1.046758996336879105e-01 1.900673250119205154e-02 -2.297964081933678501e-02 -2.473767564429180943e-01 1.652468582963111943e-01 8.545654328694105017e-02 -3.322670318439670950e-02 -6.109070138016360618e-02 -7.135344112944416728e-02 -9.584901196571503357e-02 2.493836877931090712e-01 -1.317322085330706882e-01 1.712477099409694115e-01 -2.659934914207859324e-01 1.568113447959349274e-02 -3.100414371083205431e-02 -1.783585204278912428e-01 3.093745615853988121e-02 -4.112752624001680089e-03 7.425177496263831063e-03 -9.441835284473995560e-02 2.824632838781899191e-01 2.116346395520413426e-01 -1.858322333542940241e-01 7.095879761030492172e-02 1.453383161129209178e-01 1.829509199054701052e-01 6.695332453862212763e-02 3.252409504826247327e-02 -4.044478492708373368e-02 2.863032734091103815e-01 -1.886828412728409551e-02 -1.215007902137032747e-01 -5.266175021931020911e-02 -1.291719729266288530e-01 7.295880036812452119e-02 -5.225617186235779338e-02 1.722675838699957995e-02 3.266549115929821001e-01 -7.458284508284353242e-02 6.397476686207313745e-02 2.066666677961914722e-01 1.201330545717395476e-01 1.934785307176253577e-01 1.419882717568153319e-01 -1.277879899084735094e-01 -1.632998497695673512e-01 -1.878940862104587772e-01 9.144507748089183985e-02 1.122806414463287106e-02 -4.536842804262058299e-02 -3.411695423654336201e-01 -2.309154490609719723e-01 2.231536024610784041e-01 7.464881590543448464e-02
4.490114631922350469e-02 8.430609232252124149e-03 3.073281377586988827e-01 2.042883398298285524e-01 2.614522442176706596e-01 3.288752899087220016e-01 9.124793535443476156e-02 1.828171207028234796e-02 -4.599185390978820925e-03 -2.044210880243144124e-02 -1.309033979565474570e-01 -1.938132992228290274e-01 1.807910901386720337e-01 4.061398237278567025e-02 -2.645056455070452506e-01 1.510234611244708203e-01 -5.953753729349494511e-02 -7.637106532094281586e-02 -1.772290663641203079e-02 1.103247529980631580e-01 -1.120710769231901549e-01 -1.255103658661811394e-01 -8.150247741071085794e-02 1.554294234602080771e-01 2.250027619810814894e-01 -1.621565306693324715e-01 -1.312880060006245929e-02 -5.802764666717195874e-02 1.081780173037036608e-01 -2.007668851183121439e-01 -2.159425912464711661e-01 -1.450039942617308286e-01 -1.701824209438595747e-01 1.282673112813647598e-01 1.158585697120651792e-01 1.953047775420342635e-01 -2.510750918751395444e-01 6.030617879177378737e-02 -3.230330611360179294e-01 -7.933945034674787233e-02 1.580647831668423597e-01 -1.526333923486387634e-01 1.807661355587510676e-01 8.525422347827420200e-02 -1.948654976487894097e-01 -2.146261812799451218e-01 1.811974477926525384e-01 3.925938536586392330e-02 1.868320109793851214e-01 2.061670814189608680e-01 9.965902738954205559e-03 -2.623962912442919654e-02 6.261843666282305987e-02 -1.745378655185159944e-01 2.690661779529300301e-01 -2.145766538411850999e-01 6.368213821147829246e-02 1.831712889805156841e-01 4.609305186677056104e-02 -6.639172210147661034e-03 3.986548628171626696e-02 3.555459581325724483e-01 -1.701156724557967292e-01 -1.121066886101084598e-01
9.629518549897903013e-02 -2.414360885933117540e-01 -1.974867457534975612e-01 8.334820252196435686e-02 -2.185524934416863130e-01 -2.393097638614153089e-01 -1.671150936213035842e-01 6.841196512636245342e-02 8.058676151035273905e-02 -2.754977735607695988e-01 2.049761861783818973e-01 -3.857488224678297839e-04 6.047925757606710528e-02 6.420529737737601383e-02 1.556424446279561224e-01 -1.146551712271796503e-01 2.508522017464492881e-01 3.023671184804997344e-02 -3.822420599020141113e-02 2.453141034438879042e-01 -1.615836532935388814e-01 1.131152588781875606e-01 -1.463807007472392192e-03 -1.032889133420455685e-01 -2.372781948319728496e-01 -1.082026514553198759e-01 -4.076141109159012871e-02 3.810708099755965583e-01 -1.940748914279436521e-01 1.917821193620319609e-01 -2.579580436685248723e-01 -9.161062626532871789e-03 1.377220374312394247e-01 1.295847186933984374e-01 6.916751400362708413e-02 3.915668644020432465e-01 -1.039644999316415019e-01 -3.156537091361657989e-04 -1.251533842525957008e-01 2.637110101932320094e-01 8.590571439442130919e-02 1.033326819101088589e-01 1.259239946726644077e-01 -2.756229781096529718e-01 4.820700822550439552e-02 2.858619307515262165e-01 -6.398525849096439733e-02 1.123135069444265860e-01 6.489915781509647541e-02 -5.171057192151772529e-03 1.037092501461970989e-01 5.904812407735999212e-03 5.251005908929989169e-02 2.857825107537897980e-01 -1.732284166594298125e-01 5.438239817079747879e-02 2.582972246862795182e-02 8.639209209712543636e-02 1.861189287634555933e-01 1.272921926093285583e-01 -9.878965365223846273e-02 -2.349067826864953135e-01 4.657092074592151382e-02 8.223424707168818307e-03
2.800961378711743777e-01 -1.346986310718515378e-01 -2.666746834379151582e-02 -1.439393114798644818e-02 -1.465483618851036729e-01 1.112951352319372922e-01 -2.342643960648300994e-02 -7.431053156885934763e-02 -4.025575167203952059e-02 -1.073597809387563107e-01 8.828473058290119135e-02 1.983397320612908243e-01 -5.522836024544737488e-03 1.379782624200664165e-01 -6.149057838540050031e-02 -1.381848251513141113e-01 7.186226287938192459e-02 1.835833511593713274e-01 4.283609973026354933e-01 2.071406354535936523e-01 1.067009312247689384e-01 -5.338822052898719445e-02 -2.601519785604551882e-01 2.238263786713009795e-01 -8.841643585641674463e-02 7.529689641474469897e-02 -4.905841125443819589e-02 -5.862873448686310024e-02 -8.461306687699519935e-02 2.355170772780018976e-02 -1.668727621071592060e-01 -2.510171061671770398e-02 -1.630216418010130286e-01 1.698839933716205786e-01 7.783240133022714669e-02 1.340313967495460612e-01 -2.914059868594198743e-01 2.438708949005951032e-01 -8.274626638139867540e-02 2.035267516062832238e-01 1.441635624870713506e-01 -5.925557728406465746e-02 2.591273304681949718e-01 1.907636771271225551e-01 -4.404856043455560033e-02 1.414438255924750643e-01 -1.471296037308152949e-01 1.368451295956687463e-01 -1.867958367442963952e-01 -6.207868766831142748e-02 1.689840085279029902e-01 -4.434862945086876507e-01 8.825812254347645269e-02 1.556312716287513997e-01 -1.998299890903004195e-01 -5.904599776371543401e-03 1.166131631328718998e-01 2.061354407329164806e-01 2.883648083163082698e-03 8.990766885210502157e-02 -1.834069395507290090e-01 -1.448018691825799786e-01 2.557954018824961651e-01 1.191543368129884262e-01
2.175597820737150759e-02 1.249737682162009589e-01 2.673858146460111884e-02 1.233641332973196419e-01 2.240717840527753444e-03 7.920971628963083266e-02 1.914348681944697261e-01 2.398363976211945470e-01 2.491027112781214747e-02 -6.086442458838720558e-03 3.140994787061568427e-01 3.666176126201527857e-02 -2.437886384781303428e-01 2.415703386899303584e-01 7.856497999535269616e-02 -7.594469119358819229e-03 8.432266250234882188e-02 -5.979397217831327639e-03 4.023267533264693330e-02 -1.020064370795862735e-01 1.699717224820574135e-01 -1.605334378310327159e-01 -4.419476451396946171e-02 -2.568861541796631509e-01 1.482654937181015209e-01 7.416969696795996936e-02 -2.816014840241840358e-02 2.050368453058221685e-01 -7.440091944950305569e-02 -2.419409624289277638e-01 6.585674040044203759e-02 -8.020302472203282018e-02 1.581651029993028368e-01 -4.292057428684077636e-02 1.902792081619749665e-01 1.996579265721510066e-01 7.180329646807206978e-02 1.961248301568206120e-01 2.226036459783344371e-02 -4.406338677963320127e-01 -1.571066653165014149e-01 4.237401369198196543e-01 1.718531258395907535e-01 5.766306243789898200e-02 2.456960484512519388e-02 1.990083571887769909e-02 7.591928122917367128e-02 -2.525112132805366616e-01 -1.129597887650206772e-01 -9.519747279547166596e-02 2.313872534072132850e-02 -7.804855967232121952e-03 1.068628078299282136e-01 -5.885657577179943811e-02 9.899184170048154485e-02 -1.031758148160248634e-01 3.301745248052759818e-01 1.876911400830352794e-01 3.103562440730974533e-03 1.692461307711504506e-02 -2.823722343427405024e-01 4.745782845261489746e-01 5.932414205811716024e-02 -1.760760136346568028e-01
5.670085628468471417e-02 -6.521309738403627265e-02 -2.161466405630323162e-01 1.296844816188733596e-01 -2.445417977812779919e-01 -7.520482473024052428e-02 -3.863270614700888700e-02 -3.196420819384793721e-01 -1.381823784627108365e-01 1.044030030290087757e-02 -6.862807075029819792e-02 -2.009174371958028227e-01 -3.396715957611524950e-02 3.681755076644416258e-02 4.201188994775528068e-02 6.403983067432471310e-02 -1.374991031382047924e-01 4.862355478379590257e-02 -8.613697576195748773e-02 -1.912379294993697965e-01 -1.460441247245408691e-01 1.283453021061105870e-01 2.527453691932927873e-03 -6.960026553582421283e-02 1.674801730888890450e-02 -5.501518884238871393e-02 -4.289440995345399077e-02 -3.340268915438838332e-02 -2.031316720202464843e-01 -1.015309213405700545e-01 -1.803396413268901384e-03 6.368667108909348284e-02 -6.317942264626935645e-02 1.482107221874116587e-01 1.564045006472691568e-01 1.536315899797389417e-01 -9.452521390609748553e-02 1.211742473654853214e-02 -5.341026686559470493e-02 8.059585823938085480e-02 -1.781132137194969267e-01 6.195006025570354291e-02 9.168773223371361192e-03 -5.046626019797710583e-02 -9.102062925202998589e-02 -1.830315088090832820e-01 4.673292127816677799e-02 -1.157351075928381018e-01 -1.179031228742001697e-01 8.291639919746567056e-02 -1.549674044914946258e-02 -2.563556354848226526e-01 3.229152954883117432e-02 -1.127838472790895774e-01 -2.649534670493133293e-01 3.469760548522260457e-02 1.260540304794790234e-01 1.335090268916191980e-01 -1.605565307495861183e-01 1.037038031783420605e-01 -7.745567973552673624e-02 -2.019513822607141018e-01 2.080927726554991364e-01 -6.438102204020122732e-02
1.708670430131308815e-01 -9.803703315919888583e-02 -6.867534482255577277e-02 -1.752805813744725411e-02 -2.679183864450530583e-01 7.240000074634940497e-02 5.519991986516940147e-02 -2.470786441142739098e-01 1.442530242563395682e-01 -1.789338487779046361e-01 1.597269787288662923e-01 1.228207156939695871e-01 -1.708690853484643446e-01 1.843231626235289008e-02 2.138287535008555340e-01 -1.244819095900062261e-01 3.318969883395844200e-01 -5.475130950202636293e-02 -8.962694397568310434e-02 1.605115472476345839e-01 -1.716059476745274426e-01 4.860748534411216126e-02 -3.196024196131621031e-01 1.649062614337885591e-01 -1.177598358964761088e-01 9.544320959514114577e-02 2.219525714761149977e-03 -1.968618178640121896e-02 3.994040545626456606e-02 1.020499925349451081e-01 1.600744726876788399e-02 2.116970170674055962e-01 2.742731214766327974e-02 -1.688833949040644544e-01 6.194954690818698165e-03 -3.161294169836396245e-02 -1.629826355443177860e-02 -8.104077849763266506e-02 1.502831127033859016e-01 2.401546698351907927e-01 3.325692092882485962e-02 1.702982033535001272e-02 -7.675474191080053354e-02 1.468517452251319744e-01 -1.673231848579826708e-01 2.451973379090107985e-01 6.607895280474286592e-02 -4.817836914597483505e-02 -8.323491419458393936e-02 -1.981261990202958997e-02 -4.439788723108248347e-02 -1.615326679661428233e-01 -6.046494905839622236e-02 1.595689077105847953e-01 4.499184162165423273e-02 -2.966409727256714146e-01 -3.103079101357769307e-02 1.586937031581150126e-01 -1.039203426222518323e-01 8.413275513514399673e-02 7.492548532651752136e-02 -1.612866708351473610e-01 9.998677311810552637e-02 -2.272026381041956367e-01
-3.252524953334965524e-02 -1.075195647087496265e-01 1.086547770545768510e-01 4.526880199375107883e-02 1.028528400927914421e-01 1.696256327570293959e-02 -1.770825874220008367e-01 2.789862568347299503e-03 1.134895097344925247e-01 1.423107919225997942e-01 2.880206145520933236e-01 1.560071582139189485e-02 1.681270328021729765e-01 -6.648685091583000917e-02 -2.054054147045303036e-01 2.837923993444779747e-01 -8.059138579732363916e-02 1.548346034940474014e-01 -9.586811926384139482e-02 -4.346288927747257724e-02 -1.289982421763775922e-01 -3.027735349183378888e-02 1.392550529484841704e-01 -3.974252384440148805e-02 1.822527933184459881e-01 3.343006144352932835e-02 1.808548069496051514e-01 -7.225765387872458423e-02 -5.591557210973292780e-02 1.311787843867488236e-02 -1.929501818824731763e-01 -4.245976224976636543e-02 -3.231092817744522089e-02 7.966669870377868223e-02 1.768191288606147105e-01 -2.021201796432302578e-01 1.119155175266047103e-01 8.331803278556421111e-02 1.585268198702198539e-02 -2.727584470212464640e-01 -1.852063098225420479e-01 1.136257683266723162e-01 3.243151868701967672e-02 -7.798181633317184669e-02 -6.682001003935607308e-02 -1.427644348013419606e-01 1.523172614618928111e-01 -4.574166484941608740e-02 3.039176963330416092e-01 -8.102012518418187648e-02 1.733337566945804820e-01 6.110881931802478878e-02 -2.083415575256688246e-01 -1.643799397653553374e-01 5.870989741675072815e-02 -3.114406890761060032e-01 -5.627199339984790410e-02 1.506684982059792732e-01 -1.109461563958634572e-01 3.470663758463338189e-01 -7.586208864802782004e-02 5.062575604099861862e-03 -3.119796252132272518e-01 7.214488794605454502e-02
9.063600236571893454e-02 3.374262681432438349e-01 1.034753881594457775e-01 1.403515563902399399e-01 1.171997951009977473e-01 3.137241813895472742e-01 -2.770386708594612113e-01 1.944829857103165527e-01 3.367109022541084351e-01 -1.348223432821177292e-01 -3.056269459577683478e-01 -4.102072950801436725e-03 -1.528633223852718728e-02 -3.942670172333962580e-02 1.032709134462164030e-01 3.924049910693653935e-03 2.199665899573364503e-01 -5.197335870211204911e-01 1.216764669218956332e-02 -1.672446068421546903e-02 1.321752917337133855e-02 -1.009660872720046232e-01 1.731211379795872807e-01 -3.748772659026322618e-01 -2.220205390241804591e-02 1.214919684147360013e-02 1.933392831285603020e-01 1.485946663737730371e-02 9.807927480585339197e-02 -7.946154068857012864e-02 -3.089213731461915718e-02 -8.425170913059155942e-02 1.622133048660611143e-01 -5.112606506671688034e-02 -3.694672944038009804e-02 -1.032019297378983791e-01 -7.520036633438188789e-02 -5.446704780874734447e-02 1.054166086073177744e-01 -8.691976443700187571e-02 9.332924638266613948e-02 -3.686871987271177487e-01 -6.783784734865863641e-02 -3.196274233719571534e-01 -3.615292644140442879e-02 1.688775540985616719e-02 3.702633818436189966e-02 8.824878849208014908e-02 -3.927218191540948061e-02 -5.844532141590694230e-02 -5.342573296537779515e-02 2.452433016854067283e-01 9.712854007508250898e-02 -1.713262067783500875e-01 1.924458148284291514e-01 3.505939534316452472e-02 1.557682353307879297e-01 -7.943337833768578451e-03 2.708208662716670573e-02 -1.661188595215431010e-02 -1.712973963395040822e-01 -3.354948811105315509e-02 -2.222903936106193357e-01 1.640876262992218559e-01
2.441237247367591401e-01 1.371975299603097886e-01 1.277193404882930594e-01 -7.159049971639142029e-02 4.119233428279759357e-01 2.975096510393776539e-01 7.817033809957087132e-02 2.647346051030461944e-01 6.157061866554944252e-03 2.320304571104624125e-01 -2.611161057475708813e-01 3.214642351466753464e-03 3.097520701932662268e-01 -2.755101075205476646e-01 7.177436236165454786e-02 -7.531935086624870490e-02 -1.839549187854640916e-02 1.591076260763047562e-02 -1.446728815321135786e-01 -2.858923279586115807e-01 6.863410505534819905e-02 -2.800842761663402403e-01 4.096172548831756854e-01 -6.374864175631353991e-01 4.213649938560849045e-02 -9.790703702141587139e-02 1.911573835164984969e-01 -1.634922064758858873e-01 1.254155582434016980e-01 -9.350348699656330087e-02 2.157530641422598927e-01 1.685063506021772933e-02 -8.383138062676478985e-02 -2.974946574622935325e-01 -1.950123700642684699e-01 -6.505625089881773571e-01 2.176846203103665056e-01 -1.031192760812210674e-01 9.158346520384200162e-02 -1.237756582710716480e-01 -3.398392163921044873e-02 6.767085737096545373e-02 3.729410379653650964e-01 -4.533543333456613311e-02 -2.020751116302379469e-01 4.626923689501228482e-02 1.455974095156487291e-01 -2.904330121454272162e-01 2.181229619419251531e-01 2.066136454141565548e-01 -1.833812035560246911e-01 1.061599907348323851e-01 -2.481638776480454556e-01 -3.469379599981241569e-01 8.903247958622387270e-02 -1.901650544552064559e-01 -7.324678059197162194e-02 -9.756970879369555871e-02 2.674251033707136446e-02 -7.291209084841517030e-02 1.110647460727684083e-01 3.078534919077106080e-01 -2.387491091615692451e-01 2.123822287180593682e-01
2.597145596944037127e-01 -1.864288659132829484e-01 2.536363802175741200e-01 5.754263947943315943e-02 1.417183212025336925e-01 1.379915439408385958e-01 1.286242478864745888e-02 1.991757495142943146e-01 -3.065046582167494163e-02 3.194700659098287376e-01 -4.621697024891117250e-02 1.843156521994034625e-01 -9.881782960262322502e-02 6.993727082126298400e-02 -3.060910121598986802e-02 -1.158233988555789906e-01 -3.211101479260122238e-01 1.439886527233651403e-01 1.031427601771543190e-01 -1.340013645803099784e-01 1.000294267219728195e-01 -2.062635688020312830e-01 3.359630088558802630e-01 -7.979062550542043164e-02 -5.485001687620804246e-04 1.018449607281522590e-01 2.397371424409197593e-01 6.479151647698742911e-02 1.603782543370599889e-01 7.621435289201001877e-03 1.020842348538399287e-02 -5.723940105606821482e-02 -1.202200386164637980e-01 -3.505731091643089770e-02 -6.239232751088275020e-02 -5.221532054019494273e-01 -1.940039315320112312e-01 -5.299746915370059930e-02 2.972362200915439345e-01 -7.430801016267168935e-02 9.328107033859958652e-02 -8.459416620753812399e-02 1.604653565934139325e-01 6.034650654720789820e-02 -1.366749359215550796e-01 -2.565604619309679313e-01 6.193815773368665199e-03 -3.432447884199857358e-01 1.645725376334775461e-02 1.587846575044807029e-01 6.871192703979797645e-02 8.577001937161422840e-02 -1.243373368553213343e-01 -2.172809840154317218e-01 1.124059739798227986e-01 -1.829319846477457379e-01 2.509691662641201984e-02 -2.014222612205241250e-02 -3.100245400665751494e-01 6.464863057605052532e-02 2.397060901878761072e-02 2.584346236814086262e-01 -1.899687164968580366e-01 -1.407959284892445206e-01
2.469377083355870917e-01 -1.482410747389528993e-01 -1.825243122931635431e-01 1.772505515627946782e-01 1.767915432537822962e-01 1.420697623489332144e-02 -2.533349146277406871e-02 -2.003801790949808481e-01 1.239572636858788657e-01 -2.454985280362382838e-01 2.212722707338878603e-01 8.697005542024183189e-02 -8.087452647799893424e-02 -7.624262701761103100e-02 1.927507429127474359e-02 1.315960051114612173e-01 1.349963189511255435e-01 7.981510897653365522e-02 5.401652806315160316e-02 -1.207615433463256893e-01 -5.795069319637949460e-05 -1.174770161966461612e-01 -3.976424252202279130e-02 2.905518252728738204e-01 1.813587972313061500e-02 1.768476741495229876e-01 2.200487973781851125e-01 -2.967455326833771112e-01 7.477527960968888103e-03 -1.717151138021170975e-02 5.387439694635628301e-02 -9.501703921252548091e-02 -1.867058916956815529e-01 3.934888555431996782e-01 -2.770432036298312028e-01 1.651560431434537790e-01 8.775321850335632279e-02 1.195775710496995853e-01 8.456075747144170540e-02 -2.141862240939041984e-01 -6.812771617466725771e-02 3.518816024640429307e-01 -1.702165026934072956e-01 1.432778391175075494e-01 -5.921621364247887237e-02 -1.056160485190477394e-01 -7.413960378665995082e-03 -4.814767434188108280e-04 -2.354997918590195916e-01 -4.577024780905742524e-02 1.498211887015979127e-01 -1.183147582100157469e-01 2.466472174251076177e-03 -3.546086744572428673e-01 -4.758660059288548072e-01 -3.848514471306847817e-02 3.214282140793315451e-02 -1.000545691809252014e-01 9.844683255915642493e-06 1.447771138848622484e-02 -1.799899653982771908e-01 -3.696860557512088308e-01 6.037593462680723722e-02 -7.253798135072646314e-02
6.989537342865813352e-02 6.292425113145164173e-02 4.023300228869584189e-02 8.639712475399724534e-02 -2.125218035090506996e-01 -1.499540599858364409e-01 6.105580195220364215e-02 3.870108031474133597e-02 1.502536304951059172e-02 6.745309578977821963e-02 -1.573618398837418192e-02 -1.603098445692361651e-01 -2.342792013630523584e-01 -8.575583119176149322e-03 -3.030457367762673382e-02 -1.253598341607894684e-01 1.317435366545438406e-02 -3.009344411781402218e-01 4.156863957171487434e-02 6.412225551986608374e-02 1.483847723745429226e-01 3.807752340749076276e-03 -1.125892323761454733e-01 8.140807701746842484e-02 6.338782930248948455e-03 1.726653216167563787e-01 1.672775360565008917e-01 4.210895212026676687e-02 -1.543203394947452629e-02 -7.285466200757650945e-02 5.574516380853233172e-02 -1.537101229860853013e-01 2.267680145392312885e-01 -1.919627551662789477e-01 -1.178726283326686324e-02 8.258144780006715369e-02 3.767414111281545963e-02 2.075711687639397174e-01 -1.403382235776792775e-01 -6.702886351381889644e-03 -5.319804431543920242e-02 5.022952046738451970e-02 -5.978561355740962370e-04 -1.110274395536071657e-01 -8.263631518321568059e-02 -6.689618135285176070e-02 -1.655598746620835227e-01 -5.795140163942305578e-02 -3.998352155629930071e-01 -4.629781328390169398e-02 2.879275885725518513e-02 1.097260824251936745e-01 -1.673815366698477580e-01 -1.521679340617869136e-01 -1.765629221844434993e-01 2.268494594539715008e-03 -2.394997765429376924e-02 1.320253810721304100e-01 1.633543869782130842e-02 3.669469257317738847e-02 -3.366364770587391281e-02 -1.274921196286695445e-02 3.760487526338124331e-01 -2.825292012580683972e-03
1.703578169609799853e-01 1.534928652941003058e-01 -1.111591465474393442e-01 7.639899581802758743e-02 1.753359992429640718e-02 -9.534077144463059747e-03 -5.564445758934958436e-02 -1.404393994828918302e-01 -1.625474382766674553e-01 1.101166503886778364e-01 -2.273160768659027164e-01 -1.723065865045039224e-01 2.910076410870290897e-01 -8.069373745035029674e-03 -1.387727004317155510e-01 6.147586113439764549e-02 2.376431660820407243e-01 -1.251837888636206098e-01 9.697968522153523063e-02 -4.167876288502878057e-01 8.184271249465231712e-02 -3.701598653652803383e-01 -2.365882089772154140e-01 -9.163307849091902046e-02 -6.362752197591260706e-02 3.185190524901160974e-02 1.714345236179426191e-01 3.922773962116991170e-02 1.162704304226572505e-01 -7.461920729016371934e-02 -7.253427303729965969e-02 8.610427160486158749e-02 2.081380214611595544e-02 -1.890082892354393584e-01 1.411218402488991115e-02 -3.514839069722859310e-01 -2.590699340775785009e-01 5.287474630427610629e-03 2.237441569624405713e-01 6.212463335286894789e-02 -2.467118122675468761e-01 -1.110610770854580237e-02 6.912612942235334124e-02 -1.901105146475310370e-01 1.186757621774846838e-01 -1.291766858825293407e-01 2.117353833283981412e-01 -1.758872822947759457e-02 1.116046166332293338e-01 5.891797690150513134e-02 4.075275336556102163e-02 -2.282244826488075418e-01 -1.801761747523097645e-01 -1.619057857376357268e-01 7.218713174127398824e-02 1.062848069017795632e-01 5.946507865128246306e-02 1.429822314568977015e-01 2.500207771754210939e-01 -1.154451683146210661e-01 -6.912181719822477199e-02 2.772229050894695068e-01 1.145342509607602116e-01 -2.322459696561624161e-03
-9.759936795796422815e-02 -1.308373366344360578e-01 9.616413286137705241e-02 -8.887757353280602290e-02 -4.415190689764885573e-02 -3.065815673050262258e-01 -2.635068902788230694e-01 3.645590344185566534e-03 1.397939097232963647e-02 -2.769780391944662301e-01 6.885160616302275771e-02 -1.152627228005567717e-01 -1.348529422268232025e-01 2.043449825205067849e-01 -1.821314582860873443e-01 -2.590307211480264923e-02 7.936239712187383166e-02 -8.742618256064473015e-02 -2.053953239220451810e-02 1.318160703109363119e-01 -3.374103859790276716e-01 1.273437997442608549e-01 1.909486785973866022e-02 5.463187317259332598e-02 -1.930406402012199429e-01 -1.152303900177346907e-01 -4.505548935249090170e-02 -2.883675345477565433e-01 1.255150113378722676e-01 1.705678244131061394e-01 -7.065189889347257834e-02 -3.811649511865239370e-02 2.894277315362316916e-01 3.031318167551491638e-01 -9.917119346457706208e-02 3.378190535090755953e-01 2.907030419747529820e-02 6.880617397000032831e-02 1.322061026855549659e-01 8.971184480307724252e-02 6.422010429956877264e-02 -1.807506044194192030e-01 3.003932652219164501e-01 -1.687541931361301317e-01 -1.363820155255346112e-01 1.675270538885424987e-01 -1.533041660804732031e-01 -3.415810877808153623e-02 -4.005091717944462282e-01 -1.771497936638705972e-01 -5.882603651317229888e-04 4.773834039115430056e-02 9.521764197067997260e-02 2.993466201052342734e-01 -2.272383194631016623e-01 -1.121412750753581801e-02 1.491254758763846475e-03 1.666525617631980372e-01 -1.594468942179965987e-01 6.310601530318335484e-02 -8.001018274593366120e-02 -9.022257054902865780e-02 -5.040864542582029761e-02 -7.851843938321586072e-03
1.029763106418699753e-01 -2.714010415587663205e-01 -3.200820040790111065e-01 1.253648039151003535e-01 -1.861469918031634918e-01 -9.690012148969447472e-03 -2.036821949747939786e-01 5.584143420812190395e-02 -5.746659301622042415e-02 -1.380646436249405862e-01 -1.438474731137087959e-01 2.300303043960102156e-01 5.373248057872171551e-02 -8.829602885804394008e-02 1.718831864105740681e-01 3.719546484558417521e-01 7.085838698848333228e-02 -5.346687552756991535e-02 1.737641278588733171e-02 -3.342963862067074854e-03 5.271776174907152716e-03 1.750499019242608145e-01 -3.522591852572035664e-01 -1.555769887886680469e-01 -6.734578523106340107e-03 1.542589745821868474e-01 5.931588081248233973e-02 2.617794401594045889e-02 3.271831543023254879e-02 -9.639706358427353738e-02 -2.085130809494123716e-01 1.258360092779955419e-01 -2.653317606458419076e-01 -2.551286037487220937e-01 -6.145817966811750743e-02 8.085920412536160007e-02 7.239529047856571586e-02 9.587813488758140101e-02 2.998246988453811546e-01 2.590002802138370308e-01 5.268808404466027162e-02 -5.895205144810924947e-02 8.026055852390200085e-02 1.089056144465058579e-01 1.096145780153240656e-01 1.382007170603155588e-01 1.791012862419490703e-01 -1.162653327466479508e-01 -2.840733720541033791e-01 3.933225570540463401e-02 -1.487160805400205843e-01 -5.820271574645205503e-02 2.007221624181539654e-01 1.260090920731417874e-01 -3.298299665912551165e-02 -2.487591219489442562e-01 -8.065603478621576061e-02 1.256400378611134683e-02 -1.136541624783985877e-01 1.210316310729938304e-02 4.979294583295608423e-02 1.062307101299244522e-01 -2.429004215448333018e-02 -2.426281778219137319e-01
-2.027341492726222882e-02 -1.282502335520409598e-01 2.086131917421521209e-01 -4.241610694709076895e-02 8.250577077651118085e-02 -2.716209342463563603e-01 1.179893698713310873e-01 2.786686724809393501e-01 1.940380850171396498e-01 -1.696469467777678153e-02 2.390175965221486842e-01 -1.021055670055493469e-01 -8.024614827875239942e-02 2.643785928138210339e-01 -1.887049517982413160e-01 -3.175259840674102829e-01 -7.902665563003809235e-02 5.500235868658012034e-02 -1.168343643186766645e-01 -8.837788576339085378e-02 2.050659573582854778e-01 -8.146739431435567891e-02 3.926560555022992616e-01 1.376908761932717218e-01 -4.791204312487063466e-01 7.477045881446980902e-02 -4.358818955508046711e-02 -2.651847770102896962e-01 4.281763079713090531e-02 -2.796936746612977906e-03 3.718048556246857789e-02 1.803561961464234253e-01 7.188732145610590707e-02 1.556157685889805187e-01 -5.071062779489537986e-02 -2.451929897711035110e-03 -2.364168358559431971e-01 -4.137118637057653897e-02 -5.081048865501455736e-02 1.257831649908525973e-01 4.636535785962509620e-02 7.741227948341265763e-02 8.631482439840040821e-02 1.391149049158762752e-01 4.007152232856049656e-02 2.218926706074486610e-02 6.038389119064028338e-02 -5.897811197981559297e-03 -2.561374717117193261e-03 -4.821113727818023692e-02 -2.105808523500243279e-01 -1.372313439913294408e-01 1.172367249490763041e-01 3.358089590203777730e-02 1.602397412776112862e-01 -4.493884555153677442e-03 -1.091465977679666050e-01 -8.779312700892849541e-02 7.746819406294459809e-02 1.482988870202873732e-01 1.108390948355617890e-02 -1.379872902698957293e-01 3.007961917178288147e-02 4.981238834349294153e-02
2.423705185121014516e-01 -5.384265368178316191e-02 -2.251956498767211656e-01 2.176133127512182991e-02 -1.781952327304142658e-01 -2.062971731188055213e-01 1.106672786341551667e-01 -9.605181156901805573e-02 -2.060179162599510005e-01 -6.896221079444060653e-02 3.146789891270234674e-01 -1.233646786476852303e-01 1.341629716503305592e-01 8.568730683314798591e-02 1.015855703698973489e-01 1.275284907074866747e-01 1.260128653033235624e-01 -6.096935579603602468e-02 -5.042601885059665168e-03 3.321250090472228078e-01 1.400947245444059963e-01 -2.180045494579835666e-02 9.486298668214775132e-02 2.665517758704095130e-01 -3.237291556901153999e-01 4.971553512429108951e-02 2.663886747885994832e-02 1.072243607969550344e-01 -2.234955742300792636e-01 -7.142923867174204300e-02 1.205552723209573768e-01 -2.436702293138685166e-02 9.597017013299517091e-03 2.213568686320851187e-01 5.037852888505572196e-02 -1.106528113894963278e-01 2.219969257219392422e-01 -2.153561373289159669e-02 -9.771292242221416013e-02 -1.371799910647303333e-01 -2.302387947123405998e-01 -1.968099566653841448e-01 4.733494057001543659e-02 1.349176515231455542e-01 1.691601437656582163e-01 9.159604047412719940e-02 3.518018289929687736e-02 -8.064638588596552415e-02 -7.165786174818597476e-02 8.237622819130870078e-02 1.491562880060817164e-01 8.617460319522649015e-02 2.927788562848481213e-01 3.837438803380551766e-01 8.177382210646924610e-02 -5.229689315201388466e-02 4.535256081309625709e-02 6.458718809098501490e-02 1.707626905576974385e-01 -3.854925529806742523e-01 2.852538458717269743e-01 -3.204237385420289908e-01 2.190802949371179753e-01 8.266322250597313293e-02
-1.487423339500238417e-01 5.733027912116245295e-02 7.270904526699091541e-02 2.443279933768537360e-01 9.691242911737367460e-02 5.503132880272642311e-04 -1.608466921497252733e-01 -2.686642777930117743e-02 1.703132686514885474e-01 9.896008728225638706e-02 -9.885806520479291370e-02 3.121698053968699482e-01 7.586081728738085228e-02 -1.042774126369035333e-02 1.625471720999760172e-01 -4.005895829475763364e-02 -4.161662348047434068e-01 1.876982783367932284e-03 -2.175866800050895930e-02 -8.433525130588075125e-02 -9.767606730343859900e-02 -2.566005839272845201e-01 -1.056402232539924851e-01 4.559405196207253624e-02 1.541177037735870226e-01 -9.636086210263059004e-03 1.717188977455046395e-01 3.559782112060216192e-02 -1.030010065742447550e-01 1.300150399046789418e-01 4.275150246545782878e-02 2.329137952849441497e-03 -2.436018990524299044e-01 -2.280491648220468737e-01 -2.073138427665807415e-01 -1.909057080526920802e-01 9.503768726972731951e-02 -5.579909197650578800e-01 -1.366164143929182173e-01 -6.916080833351351265e-02 2.304431977610237881e-01 6.196570659349802390e-02 1.237412007719048412e-01 4.191665846323317651e-02 -2.836495162934130412e-02 -9.709024957143379264e-02 7.770734671969613261e-02 -1.275159340170174682e-01 1.688383989467157620e-01 5.469160788156780112e-02 -4.769450000436413484e-02 1.435620674195937085e-01 2.322684214406989939e-02 -1.469100259928233787e-01 -6.595583039603424014e-02 6.119224146064052711e-02 8.073664747008774123e-02 -9.072189520646734007e-02 -3.266557156914124543e-02 -1.803083414697320350e-02 -1.455342227672366817e-01 -2.143422550710031432e-02 -2.520437523630855714e-01 -2.828681790113357075e-01
-2.179440144291547865e-01 5.868335348450473034e-03 -3.510107456452778996e-01 5.764498265801278748e-02 3.866911304930052695e-02 -1.517669258117876618e-01 -1.268490978801765368e-01 -2.547875662355049697e-01 1.546852367362837148e-02 -3.129774632683211544e-01 1.514099713456114604e-01 -1.846593046577342245e-01 2.592667408978349686e-02 2.585552591742235062e-01 6.727014462040917242e-02 2.523134763596395283e-02 -7.905658901524639098e-03 -2.501296807548765155e-01 -1.680109408490673304e-03 1.788474849770633757e-01 -1.733280540540466375e-01 2.885611135636393376e-01 -2.370129855476807434e-01 3.189873563909227938e-01 3.587774882357118167e-01 -1.972071810563867378e-01 -2.123552039665607682e-01 -7.342719108404670812e-03 2.728089191883173448e-01 -2.284799535428558570e-01 5.095987209289326580e-02 -1.701369062771890539e-01 -1.850605347518710989e-02 -3.665322429090108608e-02 1.215249316387996964e-01 3.379543832866214181e-01 1.661732391828451560e-01 -1.196917346847735653e-01 -3.479250416934606682e-02 3.531311072605496787e-02 -2.222067571129385521e-01 5.981910824213349659e-02 1.134067314987489139e-01 -7.659991506278168716e-02 1.457268296543008657e-01 4.367369134492319893e-01 1.636917638878163661e-01 -6.736906305637886672e-02 -1.008589624586749139e-01 1.097758233561182406e-01 1.679698803046651701e-01 -4.042024152729583597e-01 1.010648192047639976e-01 2.369830360247285606e-01 -1.985808205621873157e-01 2.258742925554961256e-01 -2.391848959243473849e-01 -9.727996781411665794e-02 5.383803643919603255e-02 -6.438277052206295425e-02 9.969748591990329478e-02 -2.013607816189947608e-01 4.786301960515464415e-01 8.009486142893917915e-02
