-9.814104696693425056e-02 1.580763906886493708e-01 9.091671046716086335e-02 -2.462738117228853094e-02 2.199871377849125786e-01 -1.239871999070332603e-01 -9.685079054924525255e-02 -3.397625453788898769e-02 1.132222742856030806e-01 -1.494385369522576723e-01 -1.945581263112070580e-01 2.608692538792818927e-01 -1.151332409905011650e-01 1.848529170615253667e-02 -4.632321829338576641e-02 -2.694238471055596107e-01 1.268027406946885260e-02 1.208391995581464297e-02 2.537183709546456667e-01 -3.146284789643158386e-02 -1.362142162706055648e-01 -9.304477642090056011e-02 -1.313205630127313173e-01 -1.011345577350421798e-01 1.176590086200914459e-01 -1.241447543977832468e-01 -2.506651420633750418e-02 -3.353676556378645812e-02 1.268410821470099259e-01 -2.096270860430356903e-02 -2.738449448638841655e-01 1.396470857414767730e-01 -2.772960297295813392e-01 -8.907472859504524110e-02 3.457174393444334970e-01 -1.351688333563403066e-01 2.371649629822638328e-01 5.219724085350738001e-03 4.209619049952512820e-02 7.174455234600243814e-02 -7.531987647272776754e-02 -1.540895565373825160e-01 1.852091625350879220e-02 -1.491536283575770625e-03 -3.440032482121559987e-01 -1.433653162715400609e-01 -4.258414849380476874e-01 -1.460483678325063261e-01 3.061465072512076779e-01 3.104778670980141708e-01 1.022998587556297190e-01 3.511080973900309599e-01 9.325816184447557888e-02 1.968862083087802740e-03 2.444411761236195413e-01 -1.139325054369164508e-01 -2.215650242943097425e-01 -1.845920011890331280e-01 -1.786402583434998637e-01 1.187358545167614132e-01 -4.477937882760993360e-02 -7.103377261420336375e-02 7.637899870869762665e-03 8.738835928517603435e-02
7.246963127551704631e-02 -1.085286106729132921e-01 3.625998638514259936e-02 -1.074020728083705106e-01 -1.494237761295405531e-01 1.950503700744343413e-02 9.514107220452733271e-02 -1.893319769693513344e-01 -9.660299577518270675e-02 -1.460358059113074924e-01 3.340439661334811128e-02 -2.119354764025186133e-01 -1.204195038335358070e-01 -1.792374480240827017e-01 1.436269498991428750e-01 1.575052231671019709e-01 8.601694318324581978e-02 1.219009892621450014e-01 -5.678031021945335183e-02 -1.230068476157436530e-01 1.473235899116010494e-01 -1.556328192334150151e-01 1.498065197204921928e-01 -4.053716958255850628e-02 6.322528506403485293e-02 -5.321771030673688729e-02 9.567787670140865883e-03 -9.843890360645764226e-02 -2.198026109802873607e-01 1.452813346531718619e-02 1.411175507015202946e-01 -6.076215075933365239e-02 1.051426722354636550e-01 9.615602740702462736e-02 -2.438230291562069330e-01 6.674644234888064964e-02 -4.101455545873875647e-02 1.241341730134141313e-01 3.876349174539123893e-02 -1.920414748941396688e-01 8.328574936822125130e-02 1.793486419349741012e-01 -6.309677128309913730e-02 3.334020316840909937e-01 -5.135484689522964302e-02 -1.109617655130191310e-01 2.325462626830660240e-01 -1.151287297615589400e-01 6.882401352015153628e-02 -1.577934808744218265e-01 -1.190022267938725675e-01 -1.730075844152724127e-02 -3.156919842223378514e-01 7.342452024861716164e-02 1.505445125370342141e-01 8.791596656182933123e-02 4.764199460053212820e-01 3.763707701338239731e-02 -2.614052666564323224e-01 -2.466896403862989251e-01 -1.626264522817104591e-03 -1.012361327634775203e-02 6.426725666758130451e-02 3.778950432280195337e-02
4.279579614458011577e-02 5.628099125450154033e-02 3.764737245947746835e-02 8.037085506938992929e-02 1.714775240649149546e-02 1.468356574970520745e-01 2.041689153759957201e-02 1.093159521502588549e-01 7.950432852825842223e-02 1.750506273487658360e-01 6.626427503567926258e-02 -1.163711525333659541e-01 8.600129254355748376e-02 1.115841085286448514e-01 -1.229084837777959793e-01 -4.465514665062111921e-02 -1.748927446211020198e-01 8.803018933802071733e-02 9.714716210378809835e-02 2.674729280353539407e-01 -3.123905336892934814e-01 -1.955274534926600971e-01 -1.000926961672997523e-01 -3.198649670515469889e-01 7.308042450826232952e-03 5.219302861092810220e-02 -3.702972807728338034e-01 -9.390690565871126147e-03 -2.397366544049419901e-01 -7.508826744157438837e-02 -3.502970707973607906e-02 1.438012638187167180e-01 -6.778957681770869659e-02 5.021387128273878397e-02 1.575213359690748674e-02 2.500463044527668002e-02 1.517116212970343048e-01 1.439063388543604660e-01 1.649004376786515347e-01 -9.338404236854198903e-02 5.897076535682788112e-02 -1.153284091452339150e-01 1.566684830404360684e-01 -1.710275509709386077e-01 -7.334129819883287993e-02 4.750708360466762703e-02 6.237643837899621568e-02 -4.391692847417104362e-02 2.501124644566312533e-02 -1.927291236433184216e-02 4.650547946313762782e-02 -6.482758871423000002e-02 5.150158343785151555e-02 -1.277452700897426519e-01 4.063637400340335271e-01 2.200775408146028178e-01 -4.854235841646714622e-02 -6.762504103621076734e-02 1.040256792044511325e-01 -5.459947698262553745e-02 1.543327087041272000e-02 -1.840627425168122611e-01 -1.179751402095790408e-01 -1.649641372031303566e-01
-8.105183903573484616e-02 -1.284877709495918507e-01 1.186156270428306708e-01 -3.085100063230243883e-01 -9.281626699850174800e-02 -7.956104327321841807e-02 5.928279757759298552e-02 3.836254178306653523e-02 3.508904840001291214e-01 -8.418696197833055311e-03 3.020890943217435787e-01 3.124158083965936639e-01 1.010232075066229279e-01 -6.763985601088846888e-02 -2.394655098475175492e-01 -1.200628299677615057e-01 -1.717318373226804362e-01 5.412181713951264711e-03 -3.508850058651806769e-01 2.328968780681373030e-01 -1.056489931432094548e-01 -1.445701992122567781e-01 3.893049299445731914e-02 -1.795578825732944139e-01 2.286597617866948651e-01 2.741651134321215766e-02 2.045619629339508888e-02 -2.096784792954581589e-01 2.054781702505153757e-03 -1.377814650736136348e-01 -2.216509741244912790e-01 -2.637603327758369573e-03 -1.802629565405412249e-01 2.883422472635476796e-01 -8.334075806962018551e-02 -3.277718852853944709e-02 2.867729846155964712e-01 -2.016234320367384092e-01 8.203629114632031427e-02 7.475368113920506652e-02 1.129715744596893334e-01 1.965347303717936422e-01 1.959750400566807604e-01 1.894046748064786845e-01 -2.327781248226725927e-02 -1.976287100573949351e-01 -2.014682323285711951e-01 1.934031151060607301e-01 -4.184399427769016494e-02 -5.271528657490606729e-02 2.998399217935344696e-01 4.995798365802347346e-02 -1.404238875710605294e-01 -5.648495893554562886e-02 -1.659904617681178529e-01 -1.989223488764615411e-01 1.108941831958976526e-01 2.324902737484020251e-02 -2.388166235850240071e-01 -5.969021503527593975e-02 1.447718416562358279e-01 -2.861514269458468457e-02 9.044113271375154445e-03 -8.767180158455001315e-02
-2.411514687047253691e-01 9.869376286326009273e-02 -1.391659075434164838e-01 -1.097889577413378032e-01 1.772700799074943268e-01 1.620021236535815201e-01 3.610523785330875257e-01 -1.209532859565873447e-01 1.844796547530676289e-01 3.943910765329401019e-02 -3.880555182261621883e-02 -3.211181492632209089e-01 9.389506852635570722e-02 -6.511618976285156284e-03 1.658419072616706264e-02 -4.935576640060117259e-02 -1.676459264157363072e-01 2.234029740483516324e-01 -2.890168124523857518e-01 -1.683165303499638277e-01 2.599509451934783333e-01 1.360049265308346800e-01 1.911041469487298472e-02 -2.795649200228126907e-01 2.872856248853760883e-02 -1.945260904512074174e-01 -2.196616383846584364e-01 -1.438954076068588682e-02 -3.135257774039061363e-01 2.516607417753219389e-01 -1.203231938256688061e-01 -3.388889322103454949e-01 -6.672005229913074986e-02 2.194571203015022176e-01 1.049947562407311519e-01 9.051243159646392422e-02 -1.922445128641043777e-01 1.065420704576442862e-01 -1.144296672689116418e-01 2.012464220858328490e-01 -1.977670248561073651e-01 1.321871008596725017e-01 1.283361985102274005e-01 2.918333807445610550e-01 -1.608019216532263485e-01 -2.752667532581826518e-02 6.071796553759765437e-03 -3.258418868105832367e-01 1.087494706456987037e-01 5.512268462183968903e-02 -7.833976565286324134e-02 -2.425697205787628874e-01 -1.835055072274183185e-01 2.851314791164278814e-02 1.814931082932643158e-01 2.990003413660125564e-01 2.921010231308101071e-02 8.469998487307781043e-02 1.953840800706697634e-01 -6.687591656827203412e-02 1.877547901998808111e-01 1.201024355554558831e-01 -4.686346925477761355e-02 -4.431270653853854741e-02
-3.028739574331076878e-01 1.782002541477208934e-01 -2.124679903222333188e-01 -1.190709904298375144e-01 2.839344147301001153e-01 -3.520829849561815661e-02 3.218261287672688487e-01 -1.464673612940984027e-01 1.651439850095720585e-01 2.993273378904293125e-02 5.048453768976866179e-02 -5.610561241580818564e-02 1.908700555052380565e-01 4.585887311320737542e-02 -1.078121405800917948e-01 -1.074647641890812307e-02 -1.044691297662035945e-01 -1.530379515461649520e-01 -2.164636766938728973e-01 8.037109814665371887e-02 1.566009625646175574e-01 7.518993885065010374e-02 1.570323733634763907e-01 -1.723896994399983784e-01 6.123715454223397497e-02 1.434485738267986532e-01 -1.241124713644318617e-01 -1.945374446105386512e-01 1.660760020945537896e-03 5.099669385476476163e-02 -1.902083378070640596e-01 1.164094567549703585e-01 -1.105549731357964860e-01 -1.602434558438188827e-01 -1.733504941918947717e-01 1.196316477913706156e-01 -1.094408863359593170e-01 -1.574710331785444117e-01 2.826378454479228780e-02 1.361408049047328206e-01 -1.226235147607564052e-01 -1.019647413507755868e-01 -1.951695625721052265e-03 1.127885856970932965e-01 1.609963077976656609e-01 -1.347909173623372536e-01 -1.605079751032078839e-01 -2.460958027560699313e-01 -1.809336541317600466e-01 6.523960722585883665e-02 -1.219858742132697016e-01 -4.297679980637479913e-01 -2.976914125639797959e-01 -4.372407222883687578e-02 -1.819208151729269640e-01 8.050001598271872005e-02 6.445209911584003082e-02 2.713876200659868371e-02 4.263446035130836337e-02 -1.516070591541710810e-01 4.992438654388475783e-02 1.223870080495235990e-01 -1.741679549395951376e-01 6.822917983223561467e-02
1.258553768684713137e-01 4.475977119919031383e-02 -1.377372236222607592e-02 -6.795511766080981897e-02 -9.259310801957039427e-02 1.568555706218342435e-02 -2.059807755993336986e-01 -2.351176877434622836e-01 1.074837846719823298e-01 2.186270679342756235e-02 3.975587747763600910e-02 1.186212403323365777e-01 -1.513043709264732528e-01 1.951766343898903577e-01 -1.625955280875292508e-01 -1.219023128419157720e-01 3.085496713945851815e-02 -1.542134112327683956e-03 1.185332176156369544e-01 7.194974663313659369e-02 -3.121721223440478421e-01 -1.510996137175474492e-02 6.704040272944446210e-02 1.877745420791272768e-01 -5.401014536541479116e-02 -7.803829211036712732e-02 -2.404302946353061368e-02 1.545026215088945998e-01 2.075699035738954312e-01 4.625047551339139459e-03 3.160649033056578405e-01 -1.996542881527466062e-02 -1.277374221259212905e-01 8.114593695927542483e-02 3.406768956367058759e-02 -3.834673553481059982e-01 8.138844065198763689e-02 8.544412451629258831e-02 1.255023049328549654e-02 -2.719937729338524068e-01 -8.907019650869461846e-02 -5.138542496087672440e-01 1.144363738730637819e-01 -3.241910493748045852e-01 -7.538032260424533393e-02 2.254600285849666930e-01 2.306026811727018844e-01 -9.717407747525273753e-02 6.238461541220655104e-02 4.380313569747538993e-02 3.278422365758004720e-01 9.429238705339453019e-02 -2.035811190255019665e-01 -1.016051876193906495e-01 4.468932147303329994e-01 -2.783388215104318567e-02 2.617927802582690755e-01 -1.118761883175747873e-01 6.197578380411065263e-02 -1.428277523872110988e-01 1.641695755073101226e-01 -3.983922876935810237e-02 3.439221592719921006e-01 5.091744008087845802e-02
2.251868512686183432e-01 -1.679846830379461420e-01 -1.874551487926658100e-01 8.714305710354900217e-03 1.179472754636179815e-01 2.076936584216886872e-01 6.998754090437256381e-02 7.632239971423193658e-02 -9.833723113102064983e-02 1.954812464974032271e-01 -3.071494270057848475e-01 4.277660211654573108e-01 -2.214629338591873886e-01 1.955088833712863988e-02 2.215554890806666344e-01 -2.780750649357003820e-02 -5.554527031475342373e-03 -2.209860314662275560e-01 -9.012730913697845903e-02 1.634468173595154949e-01 2.147399403389150807e-01 4.310138494199675097e-01 7.613530666199963548e-02 2.705398550152258719e-01 -1.877576763338181798e-01 -1.345618293234920881e-01 -2.163782891007082210e-01 1.074647420397573105e-02 -1.700972671371226430e-01 5.287771676356870648e-02 5.795270805927259933e-02 -1.731790756206818271e-01 -7.506629204051334936e-02 8.446306184587490384e-02 6.496657503617682405e-02 -2.350603261751432315e-03 1.014717671140255850e-01 7.369001185066272053e-02 -3.591438288666466416e-01 -2.811884793478793346e-02 -2.510542463205486241e-01 1.490670459494796152e-01 6.011540266798338222e-02 5.613771088618996208e-02 -1.422027733714454900e-01 -1.992659947753361027e-01 1.094602567444863950e-01 -9.734311764182312920e-02 1.782793345303869403e-01 5.869055081817269037e-02 1.876890820802186999e-01 2.449674712072417299e-02 1.939580948165407770e-01 -4.672591067778462254e-02 -3.945788020925816188e-03 1.171139061149205352e-01 -1.055278624662377013e-01 -1.396046679959213055e-01 -1.202899516763475812e-01 -1.104012822192137339e-02 -2.477696142527918144e-01 2.353291620087361383e-02 3.419223660204626647e-01 5.137644036836847700e-02
-4.079345921222770066e-01 -1.680399494662406235e-01 1.968897595080809360e-01 -1.584447779300194870e-01 2.992717380490546031e-01 -1.586923471856385021e-02 1.096537315551971425e-01 1.201596717948516246e-01 7.901429840147408679e-02 1.970039430964509123e-03 2.044781647023941606e-01 -1.870170404073986381e-01 1.285204247398257782e-01 -3.382452864570179019e-01 -1.554864168353426446e-01 7.335176301967262502e-02 2.161420912819619206e-02 -2.371443101088951677e-01 -2.479571026657471644e-01 -9.225294260579341987e-02 1.728535003827663397e-01 6.040623874177290104e-02 -5.767617467002598974e-02 7.777096448921885785e-02 5.758282333730690983e-02 4.363224541567247566e-02 1.208717270343846600e-01 -9.047906607707517646e-02 -7.097356057673329111e-02 6.857078636065365440e-02 3.559567827530341066e-02 -1.866284872934861894e-02 -1.361920665347454984e-01 -8.058681746480346464e-02 4.725300556656449047e-02 8.215560667510517223e-02 -1.159800197384849019e-01 5.984641784234782935e-02 6.002667166527884089e-03 8.827656450122343956e-02 -2.290742137015671365e-01 -9.925491911863240646e-02 2.083280227328544454e-01 5.477210358669803297e-02 -1.161761070675138563e-01 5.823178450111760746e-02 -2.517910970809426052e-01 7.662142338139853182e-02 1.062486620714905503e-02 7.157463654917436968e-02 -3.848245969106690173e-02 -3.656339969104213661e-01 1.581645369170929794e-01 1.681606868803523502e-01 -7.196920199427229992e-02 -8.022803119860047460e-02 -3.096216020721259121e-01 -1.327511719016321312e-01 -1.372437512479361410e-01 -7.875175008780663233e-02 1.899236848523533083e-01 1.912282555727214395e-01 7.574224504924029211e-02 1.138045422148845215e-01
3.502997961709882202e-01 -1.380963068902072988e-01 -6.047258124372904137e-02 -2.974501951407089104e-02 -1.474218540353703644e-01 2.469623322308546198e-01 -2.722186218936239466e-01 5.364835390800184317e-02 -2.403490860929777262e-01 3.399030879864656934e-02 -1.755974965872184740e-02 6.494648431538253830e-02 5.287268764506919405e-02 9.218764405762654157e-02 8.755010218751770046e-02 -7.965050108385886285e-02 1.122969352554201300e-01 -2.921020927070346884e-01 4.007843597781864942e-01 2.113983085968890452e-01 -4.421725788489609676e-02 -3.552897958942745071e-01 -1.975800303125253010e-01 2.026698210004674039e-01 -2.989953390325915672e-01 -4.345514292186471866e-02 1.313620639120562927e-01 -5.788406824800585576e-02 9.106372017096698841e-05 -2.011243078514735605e-01 2.341845006194285539e-01 4.371161462389814428e-02 -3.492742810909758022e-01 4.200778312417475374e-02 -3.327938646569802809e-03 1.153188679941651550e-02 1.532346960068726727e-01 1.223023169061674548e-01 -6.394900528346164625e-02 1.215191180776769783e-02 8.454997685792436934e-02 -2.119521237611954045e-01 8.433195284884270615e-02 -7.706759397454800153e-02 -1.654797199506857774e-02 8.564842446332614212e-02 -3.050450677227354093e-02 -2.952709500442631321e-02 2.103482597910804122e-02 -9.934454818838014956e-02 3.129534335431355396e-01 3.052814126155209765e-02 -2.788864271860568289e-01 -9.184200108224851999e-02 -1.031228641028444359e-01 -1.984644929150725656e-01 -3.024976439095189429e-01 1.295631056035917439e-01 3.729657629449895789e-02 2.145058757743422972e-01 1.084229389039316066e-01 -1.857030593145683403e-02 1.566763320818912175e-01 1.393144564660195595e-01
3.895911478145664963e-01 -7.392278847802742636e-02 -2.502675199758695457e-01 1.852907694547576145e-01 -1.676509543634139843e-01 2.579853829098284201e-01 -1.002266145334704678e-01 5.395734881085272744e-02 3.092130665154935523e-02 -9.649663806426532486e-03 -2.714939840421296546e-01 4.567991802261366918e-01 -2.113195173639483282e-01 7.860952850163642480e-02 6.950899156178543155e-03 -3.504700541942274428e-01 1.828891120469131049e-01 -9.680123123764654280e-02 1.528145962336641406e-01 -5.493016875362575352e-02 -8.009584060387338333e-02 -1.251156616642335948e-02 4.534904972676024465e-02 5.173742504683938315e-02 -2.903742826866382298e-01 1.434880497502544761e-01 -3.704578946724257915e-01 -3.381935468127671152e-02 7.778541048525469681e-02 -2.045504105215613100e-01 4.596301578216708816e-01 1.953896072207840073e-03 -2.037709758592641807e-01 9.486922452310417309e-02 2.175679957608191162e-02 1.108050516528768376e-01 3.450659891598783502e-01 1.681173874419395475e-01 5.258321676643228082e-02 2.117940831014794856e-01 1.441965485983656660e-03 -8.362941449255746618e-02 -2.665371502893353339e-01 -3.306823641174243267e-02 -1.975557608406630083e-01 -1.188738553265065168e-01 -7.965905239795695314e-02 6.251713232552391641e-02 4.348256937646079179e-02 2.064162611140165082e-01 2.650561853220547159e-01 1.960339797318064875e-02 8.348285123907496497e-02 -3.920836052624812051e-01 1.100665920365291456e-01 -2.501145113004500375e-01 9.015057632011516664e-02 1.625079057896842982e-01 3.102067444193749510e-02 -7.256170300851452759e-02 9.677350016854514847e-02 3.151830015751179714e-01 3.114505267947418332e-01 -2.249499434411086560e-02
1.989049028804960872e-01 -5.946888469452834419e-02 1.137214956809596000e-01 -1.276586539680744647e-01 -2.226790287799112755e-01 7.817023630736448514e-02 6.088952815049492040e-02 -9.512179467204821826e-02 1.103792569208848495e-01 -9.480673408013515213e-02 -1.385745885760615581e-01 -8.895898909547857170e-02 -1.312028290350519821e-01 1.646176356928161777e-01 -4.499253489601034994e-02 -2.461761411717562284e-02 9.182579708646275429e-02 -2.477909759531815859e-01 -6.117991228530376274e-02 -7.951756210522874235e-03 -1.053151000045234459e-01 -7.931044731630620612e-03 5.360065350621110586e-02 8.653623790464853860e-02 -3.101796388217739064e-01 5.784053101869531671e-02 4.067506436780051610e-02 -2.109037445569937608e-01 -7.832829260682891426e-02 -1.813372524475476144e-01 1.497561139595291746e-01 -2.667823671476029015e-02 1.160437035847963899e-01 7.447319399356616687e-02 3.382426031453398402e-02 -1.544363628917009013e-01 1.430018825267241056e-01 3.641716391167807987e-01 -7.903713412682777939e-02 1.079383279895600040e-01 -8.154053956914061874e-02 -2.682966423802010114e-01 2.261859243824839438e-01 -1.173135294946629353e-01 -1.143153726925942304e-01 7.669413250510159763e-02 -5.512224183125954274e-02 -2.066411577252248374e-02 2.002353737932092148e-01 -1.532292507942770859e-02 1.737230093141005627e-01 4.659929262000850336e-02 -2.339588211531315465e-01 7.971713781848697999e-02 1.865639854922982177e-01 1.691240504923000043e-01 1.305728765495605681e-01 -1.961664689312279664e-01 -1.414979352450868588e-01 3.763431369372742807e-01 -1.607019407989625226e-01 1.593603640615824935e-01 1.266882840021663348e-01 -7.034554345485581617e-02
-4.236615617119917632e-01 6.603390932516718659e-02 6.107389888809613282e-02 -1.886076704641370672e-01 1.333993856516890453e-01 1.073638611543070547e-02 -2.503959506176093308e-01 -1.650668507539361507e-01 1.069727189963897568e-01 2.414082104004247331e-01 1.409202594701280120e-01 -3.760345000193329179e-01 3.819219822850256768e-02 -2.630339760643023439e-01 6.215057698848377998e-02 2.219372918548827289e-01 -6.146823834860807266e-03 3.365253045636880103e-01 1.006716324912857452e-01 -2.988752276071707792e-01 3.928423255810080672e-01 1.386967296222244572e-01 -2.441139786577302129e-01 -1.494766606715308144e-01 -2.366305846780469846e-02 -1.002102305755342843e-01 -5.066710350603339380e-02 -6.765594046611590751e-02 -1.881692857295308163e-01 9.368059491669022965e-02 1.472859786626574130e-01 8.288964706621444745e-02 -3.643702706530487639e-02 2.252004706068494178e-01 1.883248228106431943e-01 2.156773163861781251e-01 -3.751504944808239927e-01 4.935157823462726218e-02 -2.910293433704933541e-01 -1.455857180855692212e-01 -1.434322043263304147e-01 -8.977751788730724269e-02 3.197004710017381512e-03 1.619000609598117146e-01 -1.058547435105264105e-02 3.260046506804329530e-02 3.456886708311404099e-01 -2.189122502954961302e-01 -1.279350841107612102e-01 -1.291122734819786233e-01 -5.324096405904085172e-01 1.845475205790587936e-01 2.415701927184560338e-01 2.039655873806988373e-01 5.178983012866873042e-02 1.177709554687627197e-01 3.606977263890824847e-01 3.004431711676283645e-02 1.321954402346554314e-01 -1.201349334207678921e-01 -1.271417972529114981e-01 1.471811689191746264e-01 -1.411177882714955978e-01 4.486422085476384630e-02
-5.714295103803631592e-01 5.797901466239377410e-02 1.974904381703476985e-01 1.768108952343409868e-01 5.051973269659139065e-01 2.184731018310129974e-02 1.627921603692548125e-01 -5.772923126455459242e-02 1.899736637988563293e-01 -1.239089592770261095e-01 4.396695402153175669e-01 -3.384187537495969011e-01 1.386727684495100976e-01 -1.999452872152301941e-01 1.769935647238362053e-01 -1.665197141033359085e-01 -3.775537449638555199e-01 3.821074266974990308e-01 -2.120008684863440296e-01 -3.497504468912766007e-01 3.016398639505935564e-01 1.457746602113468848e-01 -2.017603811358959776e-01 2.418305736884900636e-01 3.442292161763826908e-01 1.229062400249770620e-01 2.079601454807187555e-01 4.927064941157195677e-02 -1.168144989832532177e-01 7.266905901107749768e-03 -7.511995550987016212e-02 -1.910644330577487560e-01 1.347362682141456658e-01 2.296682963103096886e-01 4.023536248610012217e-02 4.369739330576619674e-01 -4.696111952763019071e-01 -1.832426560619161426e-01 1.836221665001948888e-01 -3.916971137077541742e-01 -1.728162127549947580e-01 2.945700184790490672e-01 -2.439687246521755615e-01 -1.243982195929554252e-01 2.651623623672240693e-01 4.849504990137645105e-02 1.377504030210045527e-01 7.958603902984784373e-02 -1.738749484672881818e-01 2.921132047831188558e-02 -6.162816141327538411e-01 -4.407791568231241297e-01 5.266441143167047145e-02 -6.408944175025242315e-03 -1.866005317212066361e-01 1.288870621952827589e-01 -2.004796053279528714e-02 1.537397463059863960e-02 1.698720257831597968e-01 -2.033325134444258775e-01 5.019677799459454359e-01 -1.695448604654297142e-01 -1.639852204654060341e-01 1.281934244847391102e-01
2.825056282835667898e-01 -1.254105115375157842e-01 -1.828793928073595976e-01 4.159031590373809401e-02 -1.744340279829427187e-01 -2.150727322348500170e-01 -3.145311702820944855e-01 2.890663420255366045e-01 1.300447053766828620e-01 1.118759753736675994e-01 -1.413526798946709573e-01 4.610550862939871708e-01 4.629676024334190843e-02 1.757655140742387864e-02 -1.358313481521970789e-01 -5.654016195193777711e-02 6.990258628970642818e-02 -1.494484841817208254e-01 -6.137476145058950311e-02 3.360230398391160223e-01 -1.185904581909873329e-01 1.102895963589724526e-01 1.290008992179321745e-01 8.203759476742672474e-02 -1.795883281834640410e-01 -5.895630767020484247e-02 -5.033291151392228768e-02 2.967327508941041726e-03 -1.615004727296808773e-01 4.208753873531571182e-02 -1.021067019711667107e-01 1.997811822810275084e-01 -1.347566615876104601e-01 -2.722287942226873647e-01 1.443543622538866200e-01 -1.349074170078051749e-01 1.279721862516842168e-01 2.591123664627613676e-01 2.035805465416853921e-01 3.833244015458771303e-02 1.242355068319587058e-01 -3.142936765064588966e-01 1.633216178940392060e-01 -5.921501579102852325e-02 -2.142718944567241768e-01 -1.400069083040145490e-01 -1.982982456528153276e-02 -8.507623487751822533e-02 -7.278021564671063870e-02 -1.723564998824817784e-01 4.102716618853678027e-02 1.334793852572850881e-01 4.030161373904520006e-02 -1.928706102158667945e-01 4.105097789209271458e-02 5.214443927845733434e-02 -2.781786385164822240e-01 3.815182148747460755e-01 -8.302488799011711190e-03 -1.312402262285990440e-01 5.581583337362665959e-02 -1.445752630475849176e-01 9.861989778852475394e-03 1.036440442999584377e-01
-3.653103787053116891e-01 -6.501564246528362956e-02 9.591757317772385549e-02 -1.852723568493633635e-02 1.055792154158256835e-01 -7.412333978327299844e-02 -1.060424948266817241e-01 -1.002384518636985355e-01 -1.558757277709771523e-02 -3.080199570362616990e-03 4.682328980045131345e-02 1.998106118269840081e-01 -1.988620715403990880e-01 -3.208404772671955701e-02 -4.904986479410974529e-03 1.812321598271653400e-01 3.178313420428349745e-02 3.619764541290943632e-02 2.432485141165240117e-02 -2.962833143367082367e-01 3.808185373437907723e-02 3.628671233832422849e-01 -4.697515283645116446e-02 1.695182813963836965e-01 1.623098078637422448e-01 -1.294477258926863272e-01 -2.231558718092672144e-01 1.375687005901564119e-01 3.173985963607749150e-02 5.101755809471799630e-01 -2.622918827217037285e-01 -1.043325255833708332e-01 1.216098810687588211e-01 -1.138250009331545493e-01 -1.638284492496990541e-01 1.173417279249747702e-01 -2.619181910568353366e-01 -1.803231201843074061e-01 3.395935393944258390e-02 6.050661548291118297e-02 5.185333577556237861e-02 7.513807262504249192e-03 -9.002010631507129101e-02 -1.214254999494349951e-01 1.265964840038166506e-01 -1.681942590902206491e-01 1.253249492942389021e-02 2.163801960245476108e-01 -1.629685580898746489e-01 3.373840756248815825e-02 -3.848267471015883179e-01 -5.514550396302304175e-02 1.126260488670496884e-01 9.313301816358988613e-03 -2.372927596265936023e-01 5.048475246909459035e-02 1.143848985460656636e-01 7.081455902260951063e-02 -2.805800180839604363e-02 -3.812796146872886593e-01 -6.062375448697267938e-02 9.935101106087465203e-03 -3.991032140072145462e-01 1.038681261293703528e-01
7.005537795199651141e-01 -4.206476935657550986e-01 -3.006890019948146309e-01 1.553310702295438751e-02 -6.970763609381388504e-01 3.747259935170673684e-01 -8.167158678148292439e-02 2.752226547256733102e-01 -1.602177792882053253e-01 -1.353459561305993542e-01 -7.058590020981473367e-01 2.823085727820256463e-01 -5.690002567656261834e-03 2.614983416151971940e-01 -4.611431348225478177e-01 -4.022596389167296810e-02 6.173631361659243089e-02 -4.093675880093347597e-01 2.619117208532548702e-01 3.232888932162220064e-01 3.766968239692158188e-02 -1.546082767341837028e-01 -6.858128145668221376e-02 -8.685477336307222129e-02 -4.332815810233054954e-01 -1.264472055996411493e-01 -4.336715698650669970e-02 -7.621762562268333263e-02 -5.849272987515710676e-03 -1.185317957286060320e-01 -7.291914948085097270e-02 -2.040469599658226510e-02 -2.467562901365686623e-01 -1.236300877749793720e-01 -1.534487931619451899e-02 -1.418450311110087958e-01 8.379057798033348603e-02 1.472740429755844405e-01 1.579286629257692642e-01 -5.124338679142816794e-02 3.006755122906266675e-01 -2.886808948384851914e-01 1.537050211325118598e-01 -2.077369944293576409e-01 -1.045421374532056052e-01 -4.602734635537072960e-02 -2.643087404653095551e-01 -2.943055346376637904e-01 3.397400104116610753e-01 2.701185393090572706e-01 6.932205020782261640e-01 4.919889762013396894e-01 -3.859158031110015985e-02 2.946174953475959313e-02 2.505080195190801939e-01 -2.235043671557664924e-01 -2.269028869009588056e-01 -8.861894962334791737e-02 -2.083074774406586671e-01 2.748216458541027571e-03 -4.967248369402789687e-01 -7.976756295299525235e-02 3.152890861052896621e-01 -1.899714487595902945e-01
9.310045712441126359e-03 9.513562230408117992e-02 -8.214909866814115724e-02 -4.637695947946511923e-03 -6.067763583365502061e-02 -7.862761197050316397e-02 3.089071404564269208e-01 -3.997697055021064670e-03 -2.528219856864414791e-02 1.196370224889053285e-01 -3.152864605033172118e-01 4.113989497261271722e-01 1.898189279002225616e-01 3.093950539363347629e-01 -3.252872910725629341e-02 -1.921005353803028892e-01 8.698953195523977111e-02 8.229508842687130454e-02 8.503447652519219302e-02 1.079526516568767996e-01 -6.833986819428199133e-02 3.366618878192900038e-02 -1.048624060900253813e-01 -1.557498294937588457e-01 7.980393253644824450e-03 2.191490243257868814e-02 1.035556879049581713e-01 -1.333253555528399747e-01 -3.908486963868594843e-01 -3.617201262077568980e-01 -4.678696245576959012e-02 -1.786142925878857479e-01 6.350874285127051933e-02 -1.537168452429017451e-01 1.242769824807029959e-02 -2.578858938086462937e-01 -2.332605379872993157e-01 8.563198412324360409e-02 4.606068719780618409e-02 -1.860947653139757851e-01 -1.259167576170029945e-01 -4.900568124284022248e-02 -5.718391526148968590e-02 -1.045931105008275769e-01 7.353720735399361941e-02 -9.440688707460054285e-02 -1.719685069333167504e-01 -3.973346968498701892e-02 6.155611830679410396e-02 6.478800738119899760e-02 4.972902718751432555e-02 5.059255324174160018e-01 -8.949235535781939477e-02 2.317456334401143264e-02 1.043180445670610912e-01 9.777510927930298246e-03 1.744628622204748639e-02 -1.099232568091144807e-01 -8.488244223668867106e-02 1.438320166765605368e-01 -2.105943512036007881e-01 3.575068790243415284e-01 -5.605035602622766150e-02 -5.576194883435346000e-02
3.740075558029275216e-02 -4.221701234779584588e-01 -1.971050168706373409e-02 2.103215990276538494e-02 5.975715533279330784e-03 6.906610371811687521e-02 -6.641529459241723998e-02 2.346920599200806867e-01 9.038417472075707670e-02 1.849331122387584680e-01 -3.441533839453569249e-02 -9.537810198044348320e-02 -2.786028413638974230e-02 -1.379887436365807574e-01 -4.688711564357719158e-02 -7.448869861359452837e-02 8.543869909508275406e-02 -4.491594163195725131e-01 -9.295290788684493211e-02 1.437653271582916004e-01 -1.499812070800368158e-01 -1.700989682736971792e-02 -6.996432073364239335e-02 5.557774759627348571e-02 1.932176434456756020e-01 -1.404274550845631964e-01 -9.248511456223027297e-03 -5.191291691190845492e-02 -1.055749414961446725e-01 1.510953125346893855e-01 1.718507614550897622e-01 -8.778509221258340434e-02 1.076032414206234272e-01 -1.500438476905036900e-01 2.640497936421477565e-01 1.384132044227978364e-01 2.509558799177665778e-01 -1.755228251578550350e-02 -1.898052192615523603e-01 1.215125717128367339e-01 2.289648941682165262e-01 2.765759831560206123e-04 9.527156813297990579e-02 -8.744408264369496475e-02 -1.679618068951808582e-02 -1.593821829124642264e-01 -2.082297855752488769e-01 -1.295515269007199155e-01 1.409670977317397655e-01 1.472815731237048231e-02 3.479400026424584423e-03 2.186347071745780302e-01 -1.092302075444360338e-01 1.534338926177269413e-01 8.166381264812672125e-02 -1.886008013545241724e-01 -9.192099323538070743e-02 -1.641647728841928167e-01 2.670541467807124869e-01 -6.667342496408094898e-02 -2.031758730218062581e-01 3.986207233102892489e-02 2.278024318898353162e-01 -9.599653456399957763e-02
2.831636370506228628e-01 -9.156473410251575462e-02 -2.828515018137907344e-02 -3.349872179309644760e-01 -3.292019437235869095e-01 2.810220503001639170e-01 6.971027524924296170e-02 -1.169181649765778930e-01 -1.549549144943445644e-01 -4.294810350496536949e-02 -1.647784519925094837e-01 2.356457074963190790e-01 -2.784395193382351863e-01 9.423635383399298071e-02 1.411420375968840679e-01 4.377061670579319302e-03 -8.796196227036924900e-03 -1.542756380278723360e-01 7.465730607333520563e-02 2.118754310024603960e-01 -1.982060690991516438e-01 8.686864229918858649e-02 -7.435077928053669682e-02 -4.467576573693151504e-02 -1.555013526352191922e-01 1.330316128049598319e-02 3.941688085662001934e-02 8.563370830386372867e-02 -3.300443157439342801e-01 9.639401681696363466e-02 2.216459066462863614e-01 8.445371372406657029e-02 -6.559647198064803841e-02 -1.424358343716136399e-01 8.540455439252787884e-02 -7.571598722526200198e-02 1.013221156893558961e-01 -1.086816313703398845e-01 -3.262953355986621812e-02 5.085236337453071485e-03 1.184414114685443664e-01 -1.233610646451907822e-01 2.271212695562533634e-01 -1.501138166487494541e-01 1.170793807297033085e-01 7.598129172983496271e-02 -9.724892378701530116e-02 -3.125220519195851532e-01 -5.001775641417248452e-02 -1.229928366677984948e-02 -3.490606077737203050e-02 -6.358036986777620969e-02 -4.251992175394859325e-02 -1.431023104697806136e-01 -4.037625133858819271e-01 -1.876105061276927000e-01 4.429233058309065690e-02 3.402565636665774192e-05 -1.746751171339413211e-01 1.472451109715465778e-01 -9.884554912583747022e-02 1.476320998732361112e-01 2.376005937908496068e-01 -7.289426474580965043e-02
5.994158826572353327e-01 3.199915229084124291e-01 -3.459213879564317917e-01 7.343266111392211803e-02 -2.743946950256082595e-01 2.656609575730437545e-01 2.095654455928653778e-02 2.354865318247298667e-01 2.286544467943718850e-01 -2.514821824377239806e-02 -2.352699444612586510e-01 3.525528833737138767e-01 -1.815507377085129603e-01 3.488205409017142711e-01 -3.376811088577086895e-01 -1.292976501472414275e-01 1.456238831767023012e-01 -1.206575440422354289e-01 3.369077762346968652e-01 1.055473720484972205e-01 9.532655620115276091e-03 -4.567485414907316854e-01 8.849901907017712621e-02 -7.685017245096986693e-02 -3.957984608737116217e-01 -2.128962421071545763e-01 6.914159018408248814e-02 -1.304626444505677108e-01 1.585874808691895704e-02 -2.309554132654513259e-01 3.178102966881032332e-01 -4.002050513627353201e-02 -2.091424853596162148e-01 -2.663481725126952693e-01 3.758416286413210905e-01 -3.716569664884571966e-01 1.033658754112399963e-01 1.462754228108867627e-01 2.313924487542671493e-01 -1.726313596697820127e-02 2.045600041117698505e-03 -2.986258769428363699e-02 2.434851932120679074e-01 -3.372743960948106912e-01 -2.720316887737395106e-01 2.511870699099538751e-01 1.134426596621425226e-01 -2.243915575619260527e-01 -6.015804992771794923e-02 3.650356305619994590e-03 1.926670644275896849e-01 2.478016444604011215e-01 3.687529263388992229e-01 1.343975817089752270e-03 1.856769134935597476e-01 -3.297924840040586392e-01 5.321548817423814304e-02 1.477204442049940836e-01 -3.229498171343881396e-01 1.846597514530268214e-01 -4.154484320976041811e-01 2.632418367513062463e-01 4.754764559834001592e-01 -2.589690365976599074e-01
3.718871884348221284e-03 -9.688695783697783004e-02 -1.324729331956863154e-01 -7.907543118444025632e-02 -1.040286413725051012e-01 1.195057034673923796e-01 -1.245821457504442120e-01 -2.823625798117682661e-01 4.184664339681271050e-02 -2.527351758457445710e-02 2.284958270195367180e-01 1.241903894158813589e-02 1.972671777718313507e-02 4.089006823171795549e-03 -5.507525846084324050e-02 -5.684322130963906372e-02 1.541451941345058640e-01 -8.161532583027342538e-03 -6.718553132119871318e-02 1.996757106866040854e-01 6.323732929247673218e-02 -3.092810794346247949e-01 -2.930044167225234752e-02 1.037620102481854739e-01 -1.218347200123156143e-01 5.481970069884731234e-02 -1.566467151434649541e-01 -1.655238477767220495e-01 -9.495769725948914608e-02 -1.642967866329785864e-01 -2.259283177327902070e-01 2.423142401711853022e-01 -1.452224742921644565e-02 -1.171202111069645155e-02 -3.201474530085154230e-02 8.593028371017868983e-02 -1.072625623268857881e-01 2.715377683553247060e-02 -1.124479185969135542e-01 -9.326297630090410462e-02 -8.105428779928029737e-02 -3.470295203113619997e-02 2.990159263757214900e-02 1.875253472905323224e-02 -2.218793682941500589e-01 -1.179226848201723465e-01 -5.663439785807814625e-02 -6.508286090406398272e-02 1.041003289980620139e-01 4.441534946955547070e-02 -2.345181064577537763e-02 -3.566811813853584118e-02 -2.561218601121540914e-02 1.012534275660070815e-01 2.797227317547696379e-01 2.938785110336098252e-02 2.377994386279320624e-02 7.038608888697779620e-02 -2.831852797581165815e-01 4.555124196940548570e-02 -1.105894309458325953e-01 -8.287194353834095861e-02 1.948554172171182985e-01 9.767893090008256118e-02
-2.511049505923734770e-01 1.885682360192044715e-01 -1.263606612588150380e-01 -2.704430332214218802e-01 -4.069484211499403703e-02 -1.468251387063477797e-01 1.561965715809416622e-01 -7.170225095453694464e-02 -3.986058144210520918e-03 1.032958391167606710e-01 4.376399918641159931e-02 -3.067432628300140740e-01 -7.711615798925113008e-02 -1.750809093457802723e-01 8.451182102958097742e-02 8.404374806609840598e-02 2.960244591722643870e-02 7.045593571843990210e-02 -5.892517972672266929e-02 -1.320511552658373555e-01 1.418489425546125629e-02 1.963044400615618912e-01 -3.277305137846228122e-01 -1.299956439739261838e-01 1.952957507025401829e-01 2.768274945198276882e-01 1.526939279128021743e-01 -1.454483045351656900e-01 4.564655948567982596e-02 -7.062063228245588076e-02 1.573788632753810035e-01 -3.577948493249940576e-01 2.390538336067315195e-01 -1.871583571976538629e-01 -6.799762379362751796e-02 6.875305319665857284e-02 -1.169884066407808482e-01 -1.572233393892514750e-02 2.629186352019486916e-01 -5.672163739288725581e-02 -2.674852654535539095e-02 -5.212551256604789490e-02 -5.783101188092010410e-03 2.857250013357327534e-01 -6.803861402171269834e-02 4.464759579766016534e-02 1.749973916039345434e-01 3.222926131691100649e-01 -2.278763995154723665e-01 -2.768985301567161716e-01 -1.959039980442666418e-01 -1.087935995887582830e-01 1.885796963596163833e-01 -1.058241123021091828e-01 -7.009376467713439307e-02 1.699980998872117899e-01 1.456747854125161057e-01 -5.630741600536198765e-02 -3.322968978321449995e-02 -2.071001361040518407e-01 -5.826566916913653721e-02 -6.120835315655846071e-02 -1.906745464002657653e-01 1.552678073579751572e-01
3.478186974528963415e-01 -1.890420923334047987e-01 -1.512339381750295864e-01 5.899910646466070135e-02 -4.135626800654970681e-02 6.791847430686495657e-02 -1.021552632201217642e-01 5.649915265182318957e-02 9.191344813357953114e-02 2.395297118130925718e-01 -1.811435573916654329e-01 9.430937978147123368e-02 6.373100798348156626e-02 -8.082771476769415320e-02 -8.390005824175832128e-02 -1.635223119061288838e-02 2.380588602949288216e-02 -3.860235052626591334e-02 -2.336126206435403061e-03 -1.800651370033705748e-02 -2.181024391175742372e-01 4.521477942679437423e-02 -1.328972032996003083e-01 -1.525707461175010160e-01 -1.846056638028349961e-01 -3.557549794043856628e-01 2.670736130600611102e-01 -1.778541093465902945e-01 1.993796968184869886e-02 -1.489190437824863267e-01 -6.130970532910996057e-02 4.846292216349919191e-02 -1.635213278310711504e-01 -5.389239738139326580e-02 -4.769869463232898760e-02 -2.183081446819562788e-01 1.178800794127521541e-02 -3.501314375125176293e-01 1.923041642670745843e-01 8.984670320091402151e-02 8.969070590060708448e-02 -7.085332924052334391e-02 -9.205641872492865974e-02 6.703050460461756899e-02 -1.931644480724754864e-01 2.591307102304555091e-02 2.271047001595747836e-02 7.400422568713800608e-02 1.342144510994285056e-02 3.812543461688526203e-01 1.324785396717545749e-01 5.365243043533681616e-02 -1.081628329198326272e-01 1.707770000654370846e-01 -2.873186560166609421e-02 -2.336095035102167261e-01 7.411314846054943561e-02 4.491081938455259576e-02 2.252725325505219173e-02 1.730064612960605097e-01 -1.554563100633753747e-01 1.142215772913439224e-02 4.353189273919957220e-02 -1.688059321105562227e-01
-6.886657198022634319e-01 -1.706477746682260599e-01 5.156427522598251018e-02 -1.291741277017158795e-01 4.311818053111560745e-01 -2.568517969274725088e-01 2.069594045349251454e-01 -3.946820580830791569e-01 -2.751428576678052740e-01 1.995825588219663216e-01 4.659422154936654903e-01 -6.280371093341720057e-01 6.349341069166375418e-02 -2.266098634028533565e-01 1.574195102720477302e-01 -2.616078681795693667e-02 -1.005899507786088831e-01 4.075060286895658135e-01 -4.021070758337300100e-01 -4.120822905150028359e-01 3.793053393053729128e-01 1.184775277606112398e-01 -1.308006054259541473e-01 6.347175148653774746e-02 4.307288621867159661e-01 2.647984264019194733e-01 -3.729599647177909288e-02 -2.288438912311290263e-01 2.025548820093893976e-01 1.822361640705633112e-01 -3.638325435174029621e-01 1.680139006942680535e-01 4.800726611664071081e-02 1.565116193790097587e-01 3.473575493785974883e-02 1.495477070745797332e-01 -4.566806709507403861e-01 -2.579750378301711167e-01 -3.141357037338951552e-02 1.856452165321347686e-02 -1.548278215543853406e-02 2.727445978613157185e-01 -2.024832191579277463e-01 3.413123237554278600e-01 -2.851243472550627628e-02 5.832038845454088488e-02 1.057956207390102626e-01 -3.264458572878208703e-02 -1.494048233954133331e-01 -2.048408970949725239e-01 -5.697094827212381141e-01 -3.809852278015365412e-01 1.179196927239795217e-01 2.181136613258701507e-01 -3.806696366693654854e-01 2.383499436757664236e-01 1.809035694095776914e-01 8.639353697813066668e-02 2.964915952063420512e-01 -2.121770558319461264e-01 3.558934622963600969e-01 -4.252897742670658787e-01 -3.850734535587498897e-01 -4.928991345935647417e-02
2.275043737188707227e-01 -1.329724231258677114e-01 -1.031976795292535026e-02 1.966798501751863271e-01 -1.812414407200825528e-01 -7.112454754937214130e-02 1.048070175017567912e-01 2.825006138532272781e-01 8.675468461360101580e-02 9.674654426529651075e-02 -4.448757542729315714e-03 -1.562737693186062524e-02 2.798856349428133772e-01 -1.978822618181068273e-03 1.994635536130065501e-02 3.406855272492060882e-01 -1.773178271215342938e-01 1.009686342243613089e-01 3.986194482945136508e-02 1.570073405152336565e-01 7.137201668417926179e-03 -4.998866867207079623e-01 -1.660890157337986672e-01 -2.654507973880876892e-01 -1.471811771793080370e-01 -1.983204886207721729e-01 -6.937090501374978957e-02 -1.115638238301943086e-01 -1.435703799949605286e-01 -1.315754605397937982e-01 -7.430195308210008065e-02 1.243681998590941556e-01 -8.701290689854904170e-02 1.413207681547786615e-03 -4.058965641512457534e-02 -3.836515246821826097e-01 2.184179424669767111e-01 7.993585898702353087e-02 4.968118099196764531e-02 5.624671352299406152e-02 -2.801775052760387824e-02 1.408626171457510179e-01 1.215048152758747835e-01 -1.218479045095965940e-01 -8.170727556219385679e-02 2.763016645686792727e-01 -3.922074796480168324e-02 5.742510227057968930e-02 -1.951984823682066661e-01 1.020177277970098911e-01 3.256291934863195237e-02 -1.094365718022187461e-01 -1.246531340335977345e-01 1.470330780061199494e-01 7.785828167510699949e-02 -2.029568990846268572e-02 -3.233062499520724525e-02 -1.720379654625521504e-01 -1.776510808337277425e-01 2.877335215085930487e-01 -5.635348518870394313e-02 -9.279693592681019509e-02 5.680206393119226899e-02 -1.310297641973279525e-01
-1.335853247594899207e-01 -1.935737150048340988e-02 -3.072955983785523662e-02 -8.794933872762750529e-03 5.044218896539945374e-02 -9.640322547254627505e-02 -2.865095411995502786e-02 -1.409036128052487402e-01 3.738053680623621422e-01 -1.548883170634805517e-01 5.601324818879232365e-02 5.558065181234597002e-02 -8.208585115341957006e-02 1.058500139854952060e-01 -4.882215421192459548e-02 2.173807709782618336e-01 -1.086114340389015553e-01 1.622560385411546680e-01 -3.112149508629612552e-02 -9.606613975613491341e-02 -2.148901894676855107e-01 -1.125922994449215370e-01 7.576351249408191935e-02 1.114226800060177658e-01 -4.657931264273933863e-02 -1.563539655399045214e-01 -2.794270801977588037e-01 -7.461272061805614142e-02 -2.375051858555341788e-01 1.065042059359645882e-01 -1.125670266239318512e-01 -1.716490106786252579e-01 1.503723402465448333e-01 4.413918867997029816e-02 -7.997219623969505087e-02 3.111702127679338153e-02 -3.629038846282779673e-02 -1.274797124782826030e-01 -2.509309692293951871e-02 2.771171242222423420e-02 -1.007905483525187718e-01 -1.610601955507824090e-01 2.929272215094329973e-02 -3.423922173833396920e-01 -1.121821788888029137e-02 1.499595008583630706e-01 -2.216747039890203941e-01 3.317000970889302791e-01 -5.559453287335493210e-02 -3.001620917882293349e-01 -2.009069011345760158e-01 -7.398696807320714365e-03 -9.112633546716458754e-02 -3.002790795801167367e-01 -1.310083395910188464e-01 -3.058630646071871517e-01 8.200494470348781983e-02 6.283129343598191363e-02 -7.999865404061501373e-02 1.346938255813445173e-01 7.898405990447433800e-02 1.432522352413005962e-01 -2.101183827423721562e-01 -7.595528587175198743e-02
-2.881317772391522869e-01 -7.072406847232075300e-02 4.438913618174525344e-02 -5.833226418067803676e-02 -4.447568967096851567e-02 -2.331908974106605414e-01 3.346963419759011460e-01 5.052810797005060500e-02 -4.029159731252072302e-02 -5.621570966875676090e-02 3.335193073620255633e-01 -1.213052651360353729e-01 -3.400017873657384948e-02 -1.552211190282142168e-02 -1.767376697030746124e-01 -2.747899361256916917e-01 3.420576048603839459e-01 2.904884743847415129e-01 8.589609814013342282e-02 -1.529365704742716991e-01 7.889913638773093929e-02 -1.946389472067103048e-03 -2.000352345301086299e-01 8.971086238405324986e-02 2.456663467330162109e-01 3.029391052775557425e-01 7.454653416179493619e-02 -9.309949148634906468e-02 2.354259794822825269e-01 2.993315312825560806e-02 1.501203111149925114e-02 3.837936457469315332e-02 5.748520394333395817e-02 2.193384623753591167e-01 1.256649492267709334e-01 4.319865787189204609e-02 1.387549530375936646e-01 -7.238996608079140138e-02 -2.635041641664430390e-02 2.204813326589968175e-02 1.189384732229932934e-01 2.289430405800140511e-01 -2.890748717858430128e-01 -5.954390330070688520e-02 1.409313554107646249e-01 3.210748948455890983e-02 -2.008269450019350422e-01 1.551666026336298021e-01 -1.017608531474581413e-01 7.380963100050566550e-02 -3.148786107095178366e-01 -1.613965248687719845e-01 1.113299823058543497e-01 1.659164065294131407e-01 -5.573960609220663526e-02 2.568730975131866545e-01 2.029832722511258347e-01 1.189845589836917711e-01 1.673369673440125160e-01 -2.304686827420735218e-01 3.248639816124024304e-02 6.559008123021888015e-02 -7.678156476309015710e-02 -1.948337900272034129e-01
-1.360294983885589337e-01 1.064855642774594630e-01 1.788932300220024696e-01 -1.378628674602530857e-01 5.559766934852134607e-02 -1.596391226107437833e-01 1.063284011075177476e-01 4.296802041736280664e-02 -1.893815806459989981e-01 -9.496579879274767710e-02 7.819096546414824878e-02 -2.690895895052883846e-01 1.019329496760196241e-01 -1.742020829503467261e-01 1.760828634723962116e-01 8.906414753317175304e-02 1.327849591681643793e-01 1.811385507510577808e-01 -7.379960625335832414e-02 1.759759724662951150e-02 -2.721374239464131525e-02 7.754107366017154446e-02 2.133083615508738207e-01 -3.356683012130937810e-02 3.153341165940419244e-01 5.548962549449412349e-03 2.871570288818041730e-02 6.702138726265040314e-02 -2.082715905581574573e-02 -1.576307023030535659e-01 1.167816683959781304e-01 -1.781638394552203519e-01 7.485999674379145707e-02 3.721163361003184122e-01 1.409777842326469521e-01 1.039628720034118936e-01 -3.598126295404871500e-02 -1.604520760941910151e-01 -1.934507264420501915e-01 1.373690764089611771e-01 5.250504777414945201e-02 3.813266218529038909e-01 -2.032339716861855938e-01 1.178328017468878164e-01 2.490879894202778777e-01 -1.287186894140661675e-01 -3.431734371058458351e-03 1.114269168543043503e-01 1.974858719473258917e-02 -2.876811630341193429e-02 5.499470652666364062e-02 1.867536227099600432e-02 -1.085387501686231049e-01 1.363795733532670307e-01 1.203284511238744414e-01 5.077525037059650581e-02 -1.047075579463604272e-01 1.210196927050237459e-01 2.265001059397387384e-01 -4.218790528388147859e-02 2.690132412298881226e-01 -8.350739642059699930e-02 -3.376108226780202282e-01 -7.564218554512275317e-02
2.631724937051574398e-01 -5.324423475421391494e-02 -2.615680725732506540e-01 1.682814488194129404e-02 -1.733590864197699644e-01 5.701670666246044794e-02 3.122064230862523632e-02 2.784522766938077876e-01 2.706827632450682364e-01 9.137486337302488937e-02 -2.952524115348861278e-01 -2.014515898622307455e-01 -1.222250420152228428e-01 2.079270464992963863e-01 3.323002052868218037e-02 1.741908564458901632e-01 -1.728916946760154505e-01 -1.331380460279553424e-01 7.877515780028748749e-02 9.220142535936128037e-02 -1.626193985629486860e-01 -5.682355140400078414e-02 1.501672460603011884e-02 2.669988315040987530e-03 3.309258846565678487e-03 2.487450408680347974e-02 2.108737121920674640e-01 1.236349835908196262e-03 -9.981760034613708366e-02 -2.289798220254406769e-01 -2.856529020987157164e-02 -9.399042295831862293e-02 3.095985304612009284e-02 1.346194741223765146e-01 1.678125449891555154e-01 7.433576898574255354e-02 1.370346466762501492e-01 1.078541990299284603e-01 -1.418030549481929248e-01 1.177935573643165701e-01 1.404095945300775361e-01 1.416455149388921031e-01 -3.898987603442039679e-02 5.609810192429915549e-03 7.935250230482679412e-03 1.714311010919511713e-01 -3.985298047812994848e-02 2.674756704877455094e-01 1.210666902719531451e-01 5.364778367388962910e-02 5.526338118917361042e-01 1.909768392416748561e-01 -1.632312670301848956e-01 1.655238483144091111e-01 7.994410003325487513e-02 -4.804114267999222421e-02 -9.573156377386092541e-02 -7.133918478969190902e-02 -1.564682215490163786e-01 -1.469881622362689030e-04 6.627514057006186898e-02 1.358290075430253208e-01 -1.730145687730543294e-02 -2.561527369359364870e-01
4.304745221223254537e-01 1.550654102256440736e-01 -1.634912734451963723e-01 1.198323587551613188e-02 -3.270947912769794907e-02 -2.441024763465896308e-01 -1.186163687153255347e-01 5.140489122375199726e-02 1.418498212141811321e-01 -1.263542021081723588e-01 -5.997334799746680337e-03 1.793738396691041126e-01 -1.657555925941847919e-01 2.170620567480817664e-01 -9.154517967153773250e-02 9.640965715801642910e-02 -2.525574688667703294e-01 -1.589338988704968592e-01 1.858727052301599181e-01 -4.017862291447023282e-03 1.070934045479732671e-01 -1.534882372494709817e-02 -8.975157491082090544e-02 -1.646557297647896212e-01 -3.102789727837553246e-01 -7.917279043881519929e-02 -9.229870652163711664e-02 -1.775071298944413123e-01 2.253571096786849137e-01 9.282864978650278917e-03 -1.759917787760326424e-01 1.353636920560538637e-01 3.030622045636732851e-03 7.181468528799418716e-02 -1.080898891466541660e-02 1.527389710355793184e-01 1.697038431401223790e-01 -2.207962850478015215e-01 5.838491911011373797e-02 1.921381666615580575e-01 3.297122712116035137e-02 2.352616287916924412e-02 1.937814296830122143e-02 -2.436498217747013473e-01 -1.008811967996882802e-01 8.492167463977309816e-02 -1.170727602739722595e-01 -4.284461478622785674e-02 1.401850589728574348e-01 1.389519932096278665e-01 1.380790145995981211e-01 2.022102529865277276e-01 -2.257727528290625341e-01 -1.068727912273689101e-01 1.024628253014957385e-01 -3.068776657942855479e-01 -6.994431621846823599e-02 1.097953970559819720e-01 -2.194061734370462979e-01 1.480627562272109343e-01 -2.955551732430823364e-01 6.088629390542448644e-02 5.392787262610767435e-02 6.210618942280389521e-02
-3.550660151027993927e-01 5.219850122953118010e-03 1.403238969166293038e-01 -1.583046855479526283e-01 1.127002302675980810e-01 1.891338351200577972e-01 1.188301729549109120e-01 -1.632856848824263962e-01 -1.154460796143452067e-01 3.794116398510707922e-02 1.511033005163747722e-01 -7.358660407925297908e-02 2.034706632286788219e-01 -1.069386618683145634e-01 -5.069914511086821840e-02 -1.538697379079837224e-01 2.198125530176583964e-01 2.080238577934319377e-01 -1.269071550865395748e-01 -1.552765440453535983e-01 1.271349102226989880e-01 1.664217683261125513e-01 -1.935650671226943342e-01 -2.346989304540324575e-02 2.618693106839893314e-01 4.438351152062661870e-02 8.789388582412553663e-02 -1.173942771044899497e-01 -1.341014752126058751e-01 3.294720522497137510e-02 1.645377829629816879e-01 4.439041132800970041e-02 4.464245603067001356e-01 -1.126473563415716500e-01 -1.516264199345943309e-01 4.282207477551494557e-02 -6.055920100360250719e-02 -9.784241547009195350e-02 -4.749968495095434340e-02 2.124151016181161436e-02 -2.168181203514300825e-01 2.395634584783030152e-01 4.040809259135421695e-03 3.721338488810364137e-02 1.392223590262847421e-01 -2.372532615837372461e-01 -9.199628463607201949e-04 1.745609214460524736e-02 6.420377699815120465e-02 -3.563837750088599821e-02 -3.335486037392729197e-01 9.383464245085565425e-02 1.672438177613934929e-01 3.544354718191005671e-01 -2.190042524320728046e-01 4.530442830033729606e-01 4.161768735752752191e-02 -3.587896702631668266e-02 -1.665648187451430062e-01 -3.792772676492085077e-02 3.228582657609441187e-02 6.372209201646801546e-02 -1.769826749093932339e-01 1.725380142705920938e-01
